23597 768
Ā 0.5323453 -2.5390158 -0.055355623 -1.0957545 -0.2561444 -1.2421731 1.2416966 0.8927278 -1.0178343 -0.04155789 1.0890045 -0.92018604 -0.9340186 -0.043086715 3.1720357 -1.5573083 0.87399226 -2.0186899 0.87595063 0.71831274 -0.3101093 -1.2543038 0.6598736 -0.6485065 0.7863593 -0.34177876 2.1256027 -0.44594392 -2.5405142 -0.12858054 -1.6918279 -0.56879205 -0.6461446 -1.0262665 -0.6014077 -0.23289123 -0.7941392 -0.87610066 0.19678843 0.95529807 -1.6408168 -0.46064126 0.8846105 1.3656358 -0.7681703 0.25930342 1.2731079 0.4391877 -0.53213066 -0.7918298 -0.91002667 -0.98750716 -0.36344767 1.7736527 0.6233708 -1.0269845 -0.07419553 -0.97408104 -1.9403919 0.19426611 -1.1597046 -0.78011596 -0.35692182 1.8061936 -0.44967362 -0.32314748 0.9083705 0.06665933 -0.30273637 0.6683605 -1.604464 -0.22209412 -1.0344406 -0.43837667 -0.29832205 -0.62190974 -0.2116017 -1.2213528 -0.12808615 0.12171548 -0.35882413 -2.332757 0.13603722 0.19958659 -2.2374353 1.4124652 -0.6157966 1.3661664 -0.027692761 0.8796137 -0.43477234 1.0425657 2.798057 -1.1469514 -0.0057780477 -1.044526 0.48750788 -0.5934289 -0.23870781 1.603988 -1.0638142 1.3598927 -2.157237 1.2693343 0.39018375 -0.35634926 0.66525894 2.4843378 -1.0524118 -0.9902425 -0.17522879 -0.6304473 -1.1648028 -0.01765163 0.35304186 -0.17277853 1.1377105 2.9504688 0.0405991 -0.8833152 -0.44439444 -0.3793394 -0.5423694 1.8402996 1.0590487 0.38324487 2.2946808 0.03226989 -0.006674755 -1.4275229 -1.2747256 0.9233702 -1.331474 0.497077 -4.057148 -0.22866313 -1.8977963 0.7970393 -3.8265927 2.3490546 -1.3104048 1.4754102 2.3296986 -1.9188056 -2.694554 -1.7051357 0.22253916 -0.4567686 -0.34691507 0.14943986 -1.0406562 -0.2209537 0.7248392 -1.9870093 -1.9709226 0.38775593 1.0684458 -0.36399972 -1.0879914 -1.0373414 -0.7465175 -1.6407943 1.0560876 1.4438916 0.85051304 2.3609557 -0.64551246 -0.6076224 -1.4174774 0.45828852 -0.8581742 -2.0632443 2.078595 -0.19400057 -2.152501 0.19595581 1.2798866 2.4988947 -0.58820003 1.7115388 0.18554007 0.24661009 -2.3418481 0.29967818 0.5411376 -1.2925665 -2.0405145 0.0059590302 3.3303616 0.017384784 0.7311193 -1.634065 1.400718 0.2570685 1.0413122 -2.2861502 -2.3908136 -0.5714875 1.4503276 0.16766235 -0.039861742 0.37923533 0.6191822 -3.1146417 -0.29442132 -0.15398502 -1.6550505 -1.5543318 0.9400438 -1.0013232 -1.1951284 -2.3815694 0.95882237 0.34226424 0.8623617 1.3148199 -3.8716722 0.7661342 -2.3635747 -0.77056926 0.57313645 1.4683347 -1.0019735 -0.5303465 4.5833406 -0.32738867 0.1420053 0.16371553 1.4585152 -2.1681068 1.1631835 -1.0212014 -0.09787396 -0.94443756 -0.41725612 1.5368744 0.46164593 -1.7630454 -1.2399602 -0.64578503 0.38626117 1.3700503 -1.3922727 1.0470368 -1.8728198 -3.3765619 0.52095044 0.5257139 3.4385488 0.6867828 0.97805476 -0.17396705 -0.6580398 -1.2893758 0.7134245 1.5937127 2.657917 1.7285767 -0.9230982 2.2508311 0.50360143 -0.44362795 -0.37962782 -0.67577815 0.13485967 -0.8302964 0.8221163 -0.88812274 5.117873 1.2540797 0.6586371 -1.4174303 -0.85377985 -0.34910935 0.8653327 1.4184568 -0.34263292 1.1343832 0.8247383 0.042043887 -0.9714486 2.9738243 1.3567526 0.47548482 -0.26551288 2.634532 0.19110702 0.38629764 -0.27861723 0.11881159 -0.35395333 -0.27463928 -1.0314615 1.6340683 1.2766129 -0.19124119 1.1455745 1.9526647 1.2035264 -0.6976371 -0.12793481 1.2898915 0.7426589 -1.6230307 -0.79456127 0.629543 -1.2765834 -2.0453172 2.4992673 0.64730275 -1.3547238 2.4350853 -0.3150925 1.9420311 0.08228816 -0.40454558 -1.0380712 0.7744288 0.18024956 1.815978 1.334782 2.2138436 -0.15907413 -1.8560343 -0.24617071 -0.047054466 2.1459556 0.8768039 -0.866035 0.998576 -0.14428441 -0.91140026 -1.1424181 -0.2441115 0.99166656 0.049647275 -1.7678877 -0.34781557 2.504863 -1.5797021 1.8851795 0.103459194 0.023570629 2.0068884 0.028203046 0.0012076518 0.4246543 1.3894142 2.4817684 -1.3580494 1.0690006 -0.87660104 0.17794715 -2.3536885 0.14700994 -0.7603289 -1.0028571 -0.255166 1.3065879 2.595902 -1.8897603 -0.86014 4.2193313 -0.2917281 -2.5267978 1.0719922 1.0458698 2.0553248 0.2342726 0.5123837 0.46365678 0.28812784 -1.5624396 -0.23785007 1.5900501 0.43614757 -3.901274 1.7409588 -0.46532276 -0.027517231 -0.33098003 -1.9640006 0.5371557 -0.07270403 -0.8815729 1.3514451 0.055584963 -2.0867603 1.3928947 -1.0363253 1.8536012 0.22532488 0.01794173 -0.247351 0.30894342 0.98013735 -1.0785053 0.5154778 0.04207597 -0.43741703 0.9315717 -2.5304346 0.08783089 -0.877579 -0.892514 1.4312358 -3.4054825 -0.33595386 -1.3499773 -2.3626437 -1.5417507 -1.0680726 1.2931873 0.27616414 -0.6041882 0.1636563 -0.09734932 -0.7551527 -1.9594802 -0.9035303 0.99508154 0.17972146 -1.0924735 -1.1472752 -0.63792914 -1.240947 -1.1877239 -2.6474159 0.95714545 3.4445248 0.89693683 0.12694086 0.60496104 -2.07868 1.74556 2.833491 2.064446 0.075725175 -0.08307845 -2.3318381 0.75664467 0.15528816 -1.0883573 -0.36622864 -0.43255258 -0.1622757 -1.0445693 -2.5838635 -0.08868043 -1.4441255 1.317299 -2.0566902 -1.4044434 -0.824702 -0.7322619 -4.1515346 0.7777288 0.25903618 1.4289598 -0.14186756 0.8107425 0.34737176 1.434839 -0.16280627 -0.014239838 1.0757952 0.17516616 0.6192307 0.52352935 1.3062528 -2.102209 -1.7825997 -0.9961633 3.1264174 -0.3074658 0.6074366 -0.084667675 0.37395078 0.5158541 1.8036385 1.5893275 1.464092 -0.03281479 1.149219 0.21950857 0.61973023 1.8032154 0.73881197 0.034683276 0.84614646 -1.1397182 1.5754186 -1.199055 -0.36628687 -1.3056352 -0.52302176 -0.41706127 -0.618851 0.5855299 0.7526486 0.994919 0.8582363 -1.1122724 -0.37448418 -1.8791809 1.090797 -0.92941517 0.14740638 -0.6732369 2.3096862 -0.7868002 -1.0286332 0.90923744 -0.3049675 1.4992331 -0.18148103 -0.8358542 0.38457692 -1.9711758 2.303319 -1.6908972 -1.1629542 -0.37850663 -0.21350831 0.4146934 -0.05801616 -2.002936 0.7320257 -0.022095934 -0.2681125 0.3075882 0.30462846 3.0596743 -1.9095389 -1.639572 2.1627545 0.088107236 1.1317811 -0.59195095 1.0956736 -1.1871096 0.31703007 0.7773118 -1.5352386 0.6254306 3.5336933 0.0586323 -0.27291092 -0.9723306 -0.77715904 -3.011247 -0.05708723 1.2096202 0.7207032 -0.66696835 -1.0162083 -2.3668108 0.3268098 -0.8587259 -2.0562444 1.4646547 0.10852526 0.4628281 0.8957568 1.4808209 -1.3771696 -1.0337653 -1.1341 0.9759053 0.20201649 1.2319632 2.2558043 0.41314837 -0.85416216 1.4610536 -2.0602536 1.6668577 1.1702441 -1.4797317 0.8843629 -0.15906538 1.124183 0.2045432 0.3361227 0.59571844 -2.3832746 2.5030537 -0.44085383 0.77348304 2.1780343 0.7129536 -2.255059 0.31257856 -0.8235503 -0.2577023 -0.3364054 0.12848298 1.1479986 0.4623506 -1.7343122 0.9624729 0.9028272 -0.5413943 -0.7210325 -0.12648864 -0.02425809 -1.164839 -1.914612 -1.0630388 1.2333052 0.87650764 0.9182679 1.7757515 -1.7663271 -3.412348 0.59392875 2.3558786 -0.84156555 -1.9086676 -0.81864315 0.20887086 -0.22948715 0.55403197 1.5223565 -1.0715201 0.41487858 0.070094936 -1.6665269 1.9278069 -0.6590076 1.0710965 -0.07552479 -0.9039028 -0.36446255 1.8359127 -1.8775961 1.073808 2.2359796 0.84069663 -2.530705 -1.7224503 0.60063154 -0.5989931 0.8983875 -3.5422564 3.4379892 -2.1457589 -0.2048586 -0.094688356 -0.66334254 -1.6954495 0.03837477 -1.4027996 -1.2112768 -0.8935539 2.9010506 1.2759457 -0.77201575 -0.8125336 1.4507987 2.93207 -1.3389827 1.6590348 -0.18651779 -1.2666392 1.239603 -1.0616208 0.16414265 3.2405505 0.40985927 0.9266512 0.051468704 -0.37671375 -1.00354 0.39954236 1.9357284 0.40035942 -1.9395057 -1.4037019 0.83593154 -1.1688108 1.0334116 0.40103832 0.66927886 -2.6896732 0.25006622 0.7381039 0.25348994 -4.796674 0.56831586 -0.5571089 0.2160417 0.8940108 -0.634482 1.9669977 -1.0960332 1.2509222 1.363159 -1.3770628 0.45129985 -0.25315896 -0.5578158 -1.6245748 2.7192948 -0.41348788 1.1372707 6.049913 -1.8335146 0.27753815 1.463769 -0.41907156 0.28888887 2.0372276 -2.1376042 -1.5100536 1.4961675 0.19664435 -0.015834663 0.09070325 1.486676 -1.9427872 0.7231931 -0.74894434 -0.7159456 -0.1442739 -1.9209579 -0.35633793 -1.4237888 0.21136817 1.4798049 -0.24916062 -0.89971244 -0.7972841 0.20771445 -0.34418896 1.1907701 1.3864931 0.74973136 -0.1388967 -1.3936927 0.9762128 0.80814266 1.030446 1.9684784 1.8505449 -1.2505426 -0.86043787 -1.9769938 0.8081937 0.7501333 0.7078014 -0.90580094 0.24140921 1.504957 -1.1464375 -1.7136558 0.032627556 0.20660502 0.8591315 -0.77724856 -0.30578598 1.3871435 -0.38001415 -0.66327876 0.46468377 -0.30832842 -0.38346362 0.09246656
က 0.45924306 -1.0656512 -0.37688166 -2.4188015 0.93202716 -1.7323289 1.817615 0.86248124 -1.3976865 0.47148195 1.8516055 -0.9738778 -0.043801837 -1.2389021 1.8319343 0.93282455 0.55340666 -1.2052621 -0.3266703 0.65851206 -0.3766497 -1.9016554 0.5475806 -0.61229295 0.59098697 0.8417061 2.3952456 -0.8178527 -2.6253798 0.86262155 0.32524616 0.2620653 -2.2701788 -1.2873509 -2.1633995 -0.14419499 -1.8717766 -2.6212325 0.09821664 0.8244657 -1.6592908 0.01724048 1.0250239 1.3013806 -0.16219564 1.3749003 0.011711066 0.80181795 0.09530611 -1.2824235 -1.9008265 -2.447883 -0.09968069 1.4362122 -0.38797122 -0.07886322 0.8463912 0.2556036 -0.68202865 0.8718505 -1.0175532 -1.2640152 -1.1696429 0.13610214 -0.3977293 0.4655808 0.34568435 0.33194122 -0.7627575 0.026808131 -0.40232566 0.43574905 -1.1127274 0.31143442 0.5588239 0.13356657 -0.002653003 -0.52564573 -1.6658673 0.054871533 -1.20572 -1.8967768 0.6826503 0.8019768 -3.0988603 2.201873 -1.1595949 0.8478918 0.20294988 1.3555994 0.091735765 -1.1649784 2.570929 -1.1710416 -0.5925491 -0.42548066 0.7446237 0.14054653 0.011566601 3.0936942 -0.738445 -0.19366449 -0.7577979 0.54374677 0.15098366 -0.039200123 0.28692427 1.7188662 -0.96941656 -1.6793479 -0.9136689 0.24989127 -1.4936705 -2.0444138 -1.6002312 -0.1163622 1.0218788 3.0124667 1.568839 -0.7962682 -0.44315937 -0.30798617 0.03992582 1.6762114 0.8396109 0.93217456 2.32781 -0.31887755 0.18587208 -0.36725318 -3.3375072 -0.40561324 -1.2942079 0.48145828 -5.589539 -1.2557075 -0.84297204 -1.5274277 -2.1733658 1.4739074 -2.123726 2.468209 1.3479213 -1.2634461 -1.4468877 -1.3120852 0.07569201 -0.29070452 -0.35139516 0.30197015 -0.99937755 -0.06928554 -0.09735634 -2.324568 -1.5769814 -0.2442292 0.99450785 -1.1295015 -0.50793606 -1.2009894 -0.61841434 -1.5297132 -0.6461856 1.608512 -0.68350655 3.1871448 -1.1090121 0.08439846 -0.7143077 1.4096367 -0.7947657 -3.4139245 1.0520165 -0.3314066 -1.5080373 0.9808077 0.71077365 0.65248597 0.094436266 1.4623573 -0.0753252 0.5725629 -1.4352984 0.21995841 0.7640881 -2.1694434 -1.1159852 -0.4568628 3.1072216 -1.3758885 1.1106656 -0.6170091 0.038289707 1.0846765 0.26355895 -1.9536709 -1.0743792 -0.68974763 1.9519699 0.8725962 -0.7312878 0.19719175 1.094043 -2.7800376 -0.5613655 -1.5487058 -1.6840312 -1.0194271 0.45001456 -1.5050102 -1.8163273 -2.2643354 1.1568626 0.8238269 1.1032588 2.0051162 -4.2540083 -0.5782765 -2.0507753 -1.1699786 1.3213532 2.0014377 -0.82293385 0.46991268 5.3411136 1.4889101 0.27907178 -0.554323 2.1026947 -1.8391857 1.9125272 -0.6945104 -0.0055824486 -1.245323 0.5075905 0.8588933 0.17854553 0.38544905 -1.1063967 -0.24904285 -0.36220485 1.5627028 -1.8743876 2.4788737 -2.1273015 -2.7670097 1.1006391 -0.11218828 2.336535 0.29706472 0.21810988 0.043872625 0.20421036 -1.2385089 0.43463308 0.8767991 2.2664528 0.8212548 -0.050247774 1.0303723 0.66383797 -0.087595485 -0.47310397 -1.1249428 2.1356213 -1.4746141 1.9830203 -2.7958274 6.2095947 1.8773191 1.277192 -1.7385893 -0.68284845 0.6120846 1.0755146 0.53623074 -0.29306442 0.31671986 0.6688615 0.6312182 -1.3841398 2.4725442 -0.34796306 0.20522195 -0.6950094 1.6044043 -1.3467284 -0.48638874 1.5915031 -0.7717374 0.20712559 0.5460656 -0.36440533 1.4907205 2.184242 0.8754805 1.0881646 1.627261 0.18225612 -0.510356 -0.33144754 1.3116418 -0.2853552 -0.51663846 0.29795942 0.43224803 -1.5114231 -2.7886043 1.8641503 -0.47715917 -0.74993795 0.90641207 -0.42900077 1.5540209 0.55101675 1.9228253 -1.2535735 -0.17967673 0.12294497 1.5581499 1.7714763 2.359148 -1.1439898 -1.0163902 -0.10138555 1.4619586 2.1002722 1.0709734 1.0714737 0.64650846 -0.12799332 0.071857914 -2.2952106 0.92922753 0.10628577 0.18289687 -0.9871261 -0.46245897 2.859935 -1.2797668 1.4483309 0.5594003 -0.5090132 0.955586 -0.79136366 0.7761952 -0.6099015 1.0532557 3.0126734 -1.3515167 -0.28450474 -1.1279362 0.5628552 -2.1425414 0.88705957 -0.48892158 -1.527188 -0.91543096 2.89873 2.2428021 -1.768193 -1.030246 3.2662692 -1.2853026 -2.4516993 1.1963267 0.13385305 1.0483611 0.071696244 1.3323084 0.10709777 -1.275295 -1.3642321 -0.67012954 2.8241212 0.63210434 -3.3956141 0.5272105 0.8403737 0.2694665 0.73723596 -2.162518 0.6732224 -0.59574205 0.4789898 2.3176823 0.67450655 -2.0092568 1.542604 -0.5262333 1.9991527 0.3510552 -0.12794039 0.19470543 2.182525 -0.3651839 -0.3666375 -0.7198574 -0.02080264 0.92656404 0.62666374 -1.5651412 0.7193913 -1.5715315 -1.0550131 0.9887648 -2.4440806 -0.96219975 -1.2810552 -1.9196854 -2.0162516 -0.8687396 0.6181307 -0.9225822 -0.11387918 0.9223289 -1.6992781 0.76657236 -0.9184717 -1.3534124 0.22252981 0.79919475 -0.5475768 -0.09350859 -1.4672418 -0.19339232 -2.4889348 -1.929778 0.22357456 2.9713247 0.3201788 0.49450925 -0.45207864 -1.8161134 1.3571293 2.854395 1.0268873 0.4070001 0.240447 -0.66068816 1.3159918 -0.005153544 -1.4055188 0.592847 0.5971316 -0.2038824 -1.4532454 -1.3847915 -0.5809039 -1.105103 0.71666867 -1.2203867 -0.0012201043 0.24079506 0.24032208 -2.0126505 -0.24767137 1.7166069 0.693918 -0.31338614 -0.058246806 1.2680238 -0.09987342 -2.2367225 0.99197626 1.5324455 -1.230757 1.0818365 -0.056210198 1.7366056 -0.045660265 -1.4805125 -0.49522126 0.93447626 -0.33330435 0.120146476 0.04300264 0.014058648 1.6546022 2.2596102 1.5137823 1.9557955 0.37977386 1.4906092 -0.45422179 -0.9860412 0.40329176 -0.31953043 -0.10792586 1.2032789 -0.427209 1.0830781 -0.620022 0.18697815 -0.21880697 -0.58931506 -1.2712421 -1.8571374 0.74802697 0.2955356 -1.0340953 0.70422846 -0.68553096 0.016241567 -1.3533701 0.20380211 -0.9564007 0.16416802 -0.46079123 1.2614384 0.42255446 0.147409 0.52085686 -0.0949867 1.2852191 1.0120528 -1.2311835 0.046277102 -2.1940815 1.9832432 -1.3239233 -1.1164287 -0.91846555 -0.34747383 0.8361192 -0.36061177 -2.6581924 -0.40716046 -0.59504044 -0.84511673 -0.041102313 0.52627385 2.1465135 0.058737334 0.20879091 0.15312922 1.427268 1.5730181 -0.9819069 1.5137824 -1.4965055 0.23821911 0.10248284 -1.5079476 0.35134852 1.8338647 0.19714554 -0.9935308 -1.106038 -0.3380239 -2.4758437 1.5500869 0.03636461 0.43964088 -2.0214038 -0.2982031 -1.9089816 0.59956175 -1.2830559 0.037526056 1.6259614 -1.4301934 1.563865 1.6963147 -0.2136348 -1.9718745 -1.9836639 -0.06292092 1.5536346 0.6037608 0.70599455 0.82037 0.30857414 -2.455036 -0.22927178 -2.743971 0.16488756 2.6251776 0.08084639 -0.7290645 -1.0486208 -0.115207516 0.20598412 -0.17056441 0.2822559 -1.0102208 2.3154635 -1.1399907 1.0056136 1.6249039 0.644873 -1.3222662 -1.2357721 -0.62572664 -0.5497133 -0.26090294 0.8363281 1.1147039 0.07500795 0.14828575 1.5696498 -0.24524204 -0.10583837 -0.85432196 1.309737 -0.59450287 -1.1853626 -0.95133156 -0.41149282 0.43793088 0.54871273 0.41673523 1.0148668 -1.4074838 -2.9638233 0.53869134 0.9204911 -1.6313818 -1.2935524 -0.9409996 0.8750688 -0.79482573 0.87086385 0.13156058 -0.8839286 0.29843113 0.22611783 -1.5790163 1.425538 0.86816126 1.6827126 1.6026213 -1.042116 0.17005914 2.032466 -1.252953 0.7938487 0.91280127 0.85338265 -1.7851659 -2.1682534 -9.44604e-05 -0.5233732 0.3229532 -2.0200431 2.1349983 -1.1317942 -1.0873163 -1.3298326 -0.32156685 -0.013012643 0.90384775 -1.7078931 -1.2659062 -1.4995525 2.5864747 0.7981084 -0.7002166 -1.3816986 0.86411333 1.8375647 -1.035619 1.7899466 -0.79475284 0.1803845 0.4534017 -1.7311279 -0.32681444 1.5358593 0.8083472 -0.6820224 0.21325481 -0.869283 0.47689342 -0.27983966 1.2662064 -0.72870356 -1.7025917 -0.05619547 0.8876883 -2.5361254 0.8213308 -0.054312993 0.8954456 -3.5721729 0.8240326 -0.046636444 -0.22401118 -5.4711947 0.710567 0.62188464 1.2405388 1.2291683 -1.2346973 2.0032763 -0.4223158 0.115952484 1.4836314 0.22045182 0.112431906 0.9388678 -0.5582531 0.026479876 3.1880693 0.12396837 0.07158333 5.350281 -2.1789331 -1.7784295 1.3594158 -1.1817638 -0.09905565 2.2441044 -3.2412677 -0.4125877 0.86863077 0.85782707 -1.4439873 0.5731065 0.939508 -1.7871407 0.024796473 -1.2506249 -0.48403907 1.4136398 -1.1862869 -0.1475057 -1.5091245 -0.77603054 0.47962934 -0.6267536 -0.20862645 -1.8315496 0.82513154 -2.068994 0.7700942 0.28476122 -0.87085 0.7885659 -2.3553724 0.11058677 0.16898943 1.0342697 1.6975352 0.2766118 -1.398565 -0.29618898 -1.0729873 -1.2150977 1.2288307 2.386879 0.46909514 -0.033599235 1.3157657 -0.4778671 -1.2188095 1.438112 0.33580112 1.1698796 0.57954156 -0.38287023 0.28226477 0.5279454 1.2421011 0.92049325 0.86510694 -1.0529208 0.3241421
𐀀 0.0020073676 -0.49452284 0.95001745 -1.0101264 -0.10874168 -0.96049273 1.2017045 1.0433015 -1.859671 0.21547143 1.1754391 -0.39491284 -0.057126094 -1.3387953 2.2539797 -0.50647366 1.0684435 -1.6935315 -0.07102332 0.7350432 -0.37778372 -1.0190575 -0.4047122 -0.25808936 0.016545445 -0.42422017 2.4043574 0.32791895 -2.001624 0.29961625 -0.94701016 -0.06883159 -1.6239156 0.19796863 -1.1489773 -2.2722032 -0.8291319 -1.6456465 0.05124221 0.31750056 -1.9459957 -1.3364033 -0.17268594 0.39136916 -0.20738529 0.5499317 0.37770978 0.21229349 -0.88799316 -0.45650473 -0.33433893 -0.05959066 -1.5176011 1.4125724 -0.41821593 -0.0092108 0.07846189 1.0548528 -1.64179 1.0068794 -0.6445897 -1.6123582 0.28015867 -0.37272337 -1.7198448 -0.44723293 1.1310478 -0.9321643 -0.8251459 0.01653996 -2.01485 -0.37143305 -1.9873092 0.07184421 -0.5392392 -0.28958967 0.43585098 -1.2996056 -0.03512312 0.34732962 -0.41277274 -1.8794662 -0.89515936 0.42315647 -1.8689868 0.8126608 -0.43432647 -0.68684864 0.27429688 1.0109508 -1.7888358 -1.2566928 2.0131636 -0.28825787 0.94576645 -1.0946369 1.4161134 0.321169 -0.14636727 1.210161 -1.1543891 0.8387398 -2.4295313 -0.31348392 0.11397001 -0.39630815 -0.25073195 1.8978362 -1.5227734 -2.8886611 0.29211116 -0.11334249 -0.75259 -0.3001462 -1.0150087 0.40747622 0.577875 3.1820924 0.5307496 -0.30528322 -0.23691957 0.5108708 -2.4855475 1.215712 1.0134816 0.4607663 2.4110014 -0.41269985 0.2546549 -1.6057259 -1.7883816 0.83721673 -1.4121664 -0.8535229 -2.7798078 -0.18679702 -2.2048616 0.49870455 -3.7637632 1.6233131 -0.94298124 0.10739989 2.4355335 -0.9653411 -0.07542408 -1.9722252 0.010408498 -0.28094885 0.08964789 -0.7297275 0.52249247 -1.2818397 0.19601704 -1.1882658 -0.8890749 -0.6484624 1.2163744 -0.5337348 -0.2142639 -0.44530377 -0.02037101 -1.1629992 0.9804858 0.27626485 1.3697252 1.6355147 -0.809611 -0.24792199 -0.25550488 1.3033372 0.26837236 -3.116127 0.87239975 0.40391618 -2.8050466 0.24681823 1.9903003 2.2054386 -0.26554963 0.97559273 0.78122413 -0.010292204 -2.627255 0.81193566 -0.68150866 -0.49830177 -1.2588117 -0.07570601 2.0897214 -0.5106906 0.69985485 -1.2305747 0.9565245 0.014257514 -0.5555328 -1.6641164 -1.0560266 -2.1627822 0.26389736 -0.95169914 -0.092383206 -0.4397721 0.95511097 -2.6492305 0.12066811 0.6278995 -1.6877683 -1.625433 0.5402395 -1.6383234 -0.87722695 -2.4891276 1.1901733 -0.032176774 0.8356523 1.7430038 -3.3328867 -0.34950784 -1.911122 -0.2973295 0.9318456 0.5355961 -0.7134691 0.5697252 4.876375 -0.1738091 0.505165 0.025542658 1.9738189 -1.073959 0.9151028 -0.88070935 -0.5343549 -0.7047195 2.0623264 1.7439902 0.7514678 0.40025654 -0.8087702 -0.9140494 0.6598466 0.7924983 -0.8395639 2.3018684 0.44976526 -2.8542454 -0.20789818 0.5216174 3.8053706 0.4306231 -0.43994832 0.30388886 0.09342892 0.23824756 1.260409 2.1877003 1.7507523 0.19023974 -0.28138614 1.8176526 -0.32155997 0.038922593 -0.9593973 -1.165172 1.5318766 -0.4213706 0.34317094 -0.5585853 4.7951956 0.6365233 0.620761 -1.283979 -0.022628944 0.8311771 1.2699662 0.09576663 -1.1912713 0.53341746 0.73880804 0.31034425 -1.2214226 1.0970684 1.0654747 0.3979309 -1.2534679 1.478851 -1.3614236 1.3264691 0.22448693 0.70319104 0.15712553 1.1991366 -0.12691365 0.9104831 1.5310911 0.673264 1.1832145 2.0594194 0.2862393 -0.6521627 0.20560174 1.0294025 0.17763771 -2.4229639 0.65859544 -0.19249053 -1.2414664 -1.4245007 1.5111879 -0.10286018 -1.5950598 1.3710794 -0.27142364 1.4956712 -0.5962551 -0.19790627 -0.6340604 1.0556307 1.5312151 1.8283163 0.943006 3.3835807 -0.45319387 -0.725732 0.41522193 0.6111033 1.5627393 0.7895304 0.2424797 0.5533602 -0.22308229 -0.21415767 -0.521652 -0.66723317 1.2062097 -0.54185283 -1.8541479 -0.97526246 1.7899317 -0.5939336 0.59344596 -0.7205763 -0.3226965 1.730432 -0.46131656 -0.27520698 0.5340863 -0.098905705 2.193636 -1.8198192 -0.02904814 -1.0733216 1.7048876 -2.7374187 0.7177866 -0.71380246 1.1522251 -0.58933693 1.9894505 2.295323 -3.359765 -0.7069188 2.6002166 -0.531566 -1.8485773 -0.5295125 0.22123027 2.2801495 -0.34810457 0.07648049 0.3618225 -0.30831012 -1.2963136 0.33947536 0.011389104 0.87869304 -6.603158 1.321431 1.4299462 -0.6785498 1.3925468 -1.0698795 0.4028032 0.067650385 -0.42608783 0.9342521 0.64082783 -2.2728457 1.3417723 -1.5820082 1.3347988 0.07541363 0.42264807 -0.2909134 1.602689 1.1178032 -1.2178446 0.05643936 -0.9290666 0.8496641 1.6888638 -1.7851307 0.33280072 -0.6560174 -0.32255584 1.664783 -1.384587 -0.6686292 -0.75350446 -1.2873864 -1.3309939 -0.94662213 1.4765688 0.43470877 -0.86266047 1.698619 -0.54182154 -0.9333502 -0.220052 -0.16363601 0.1031212 -0.42249852 -1.864547 0.2637978 -0.9900001 0.76787984 -2.0784624 -0.51398873 0.5746591 2.111673 1.863071 -0.001436061 0.0072623966 -1.4006917 1.2157936 1.2670624 1.2243823 1.2235086 -0.15394786 -1.716629 0.32412374 0.54623324 -0.7484126 -1.2296786 -0.46398985 -0.67968184 -1.3651106 -1.3862959 0.07805891 -1.1986604 1.1371669 -1.8688442 -1.7519205 1.0959194 -0.52742344 -2.8672762 1.8817482 0.112779036 1.3781524 -1.1417923 -0.47540522 0.649103 0.82524383 -0.900194 0.43084982 1.8745857 0.30329874 1.4161838 0.5343357 1.7872591 -0.054500982 -1.1461846 -1.3068675 1.225456 -0.7643586 0.91298825 0.5664727 0.27371174 0.4703434 0.9177258 1.6772019 0.8814804 0.09214196 0.54512036 0.37752458 0.5075549 0.6634435 0.1056663 0.28692025 0.7349317 -0.3632412 1.5285529 -2.0137968 1.1055468 -0.91010034 0.0026474397 0.7451991 -0.604759 0.65682966 -0.5311676 0.60989743 0.37006956 -0.39544734 -0.3895394 -0.5459662 1.6678852 -1.3831782 -0.18546098 0.6214173 1.2385149 -0.058173813 -1.1737586 0.93101245 -0.16030271 0.97751206 0.37785128 -1.135765 0.107801326 -1.1809647 2.0975304 -1.5822978 -1.2384067 -0.007745681 -0.11536284 0.28541023 -1.5798955 -2.5764878 0.026079264 0.0033722986 -0.7001336 -1.0548096 -0.74626815 2.1394024 0.09755735 -0.44447154 0.3522556 0.9068363 0.3438436 -1.8381814 -0.11862037 0.30179614 0.13557829 1.6120348 -0.75984293 1.1108347 1.6468331 -0.17054093 -1.5829421 -0.40816808 -0.7107897 -1.8305105 0.7359351 0.43747342 -0.37414542 -0.81824595 -0.16546968 -2.2407866 0.7019633 -0.5823472 0.10009522 0.65695834 -0.71304256 -0.45952916 1.461574 0.50469583 -1.217093 -1.5270927 -0.13857853 1.267125 0.41228446 0.13570851 1.9068024 0.27112654 -1.9189075 1.5615817 -2.9193497 1.1757686 1.0991333 -1.5180494 0.9267193 -0.00067763275 0.21547344 0.6667576 -1.373071 -0.46503958 -0.8220125 2.2723494 -1.6915501 1.1677126 1.4317564 -0.29677764 -1.630646 1.08119 -0.14051062 0.03143423 -0.07726417 -0.2044499 0.9851855 0.59909153 -0.17502406 0.7881897 -0.40477455 0.47020477 -1.6284492 0.6613794 0.6587403 -0.5472384 -1.8757718 -1.0119377 1.3243753 0.70990866 -0.09946241 1.013828 -1.0993018 -2.8849916 0.530358 0.6076505 -1.0874428 -1.6051056 -0.79337025 -0.13248768 0.33085874 -0.35829097 1.5775476 -1.8296726 0.06753619 0.1791227 -1.7457414 1.7920432 -1.0810211 2.1294134 0.28111088 -2.5447888 -0.47032586 1.6695745 -0.66172445 -0.44459772 1.0343304 0.87486726 -1.6249793 -2.389591 0.2130567 0.35027215 1.2094207 -3.0899868 2.632537 -1.491361 0.51247936 -0.09492481 -0.12994537 -1.137478 -0.05477262 -1.1664693 -1.628278 -1.9163747 1.4170223 0.062397107 -2.2737162 -0.31323183 0.26362622 1.3498616 -1.6213813 1.6895155 0.76582056 -1.5274845 0.7497507 0.13655117 -0.44642475 2.6712432 2.203205 -1.202055 -0.122093394 -1.5919933 0.9171999 0.73405915 2.4947097 -0.34275544 -2.4225206 -0.7512931 -0.30803055 -0.74957955 0.33432534 -0.3795664 0.71926844 -2.3823023 1.3351446 0.33742258 -0.773991 -6.360371 -0.28561163 1.9865885 0.27293476 0.017860357 -0.55621654 0.507319 -1.2279834 -0.051357992 1.8256943 -0.06252572 0.70270723 -0.78835446 -1.0144877 -2.8507786 2.8431306 -1.3297255 0.33515528 7.6436763 -1.1286999 -1.376415 0.46939445 -0.12699066 -0.33093467 1.6594782 -2.1453006 -0.6221413 2.6613395 0.7737442 -1.1806362 0.5122384 1.0481036 -0.11203427 0.46844003 -1.0973253 -0.11495701 1.3849496 -1.7697687 0.6658541 -1.3351004 0.04920943 0.57367545 0.13464572 -0.5769278 -0.34970853 1.5781097 0.08008191 2.1095068 -1.0860543 1.2260284 0.60386145 -1.1467859 0.23259659 0.38951895 0.8683265 1.6689748 0.86490995 -2.245883 0.7859371 -2.0780137 -0.47710958 1.282944 1.1487837 -0.29849967 0.2876856 1.9590067 -0.68235344 -1.642665 1.2748151 0.021079311 0.4382872 -0.26170594 -0.427161 1.9981481 0.18463875 -0.0007575451 1.6563368 -0.04651555 -0.73493093 0.49863815
𐀁 -0.6666767 -0.73633575 1.3198352 -1.2046776 0.17551461 -1.1411587 0.74253774 0.361811 -1.7850952 1.0307362 0.58781606 -0.8570994 0.12536836 -1.4293693 2.5882626 -0.6790719 0.5115749 -1.5604467 1.1005892 1.077204 0.059612077 -1.242804 -0.33555406 0.8440319 0.2448097 -0.06693403 1.5756135 -1.0643921 -3.1019027 0.58105356 -1.9045851 -0.003862564 0.4327166 -0.4522029 -0.11628439 -1.1419778 0.097559735 -1.0130357 0.07229597 0.8427755 -2.279454 -1.3790858 1.0193592 0.5240939 -2.043892 0.11495802 1.1230389 0.5180303 -0.26937348 -1.0932574 -0.9664568 -0.27543873 -0.12345307 0.9739124 -0.29191992 -0.03265913 0.6373914 0.1788483 -1.804402 1.3002225 -1.074399 -1.2487442 -0.21828002 1.4185867 -1.2189555 0.06436299 1.2244091 0.28008658 -1.0179583 0.749756 -2.3164241 0.32897204 -0.24465577 -0.15006049 0.5850637 -0.81858075 -0.10492326 -1.4359045 0.13792527 0.24819717 -0.07475097 -1.292538 0.52413183 1.3414657 -1.6695461 0.9580244 -0.92401594 1.0564102 0.77952856 1.3223931 0.17688967 -0.18260325 0.5144506 -0.3632457 -0.23562819 -1.3330238 0.9946592 0.5815427 -0.27454844 2.5426223 -0.760351 1.765011 -1.2110339 0.1668873 -1.1691668 -1.3944715 0.22225158 1.7771482 -1.640149 -2.0146194 -0.2736812 -1.203344 -0.17172348 -1.5336425 0.060096804 0.22323082 -0.038315665 3.3843176 0.42044014 -0.080416285 -1.0490748 0.050418586 -1.573001 -0.13030872 0.37210926 0.4265469 2.2523038 0.18281876 -0.103943296 -1.5072455 -1.9899244 -0.45012614 -1.2980679 -0.18082173 -2.6892698 -1.467276 -1.7796174 0.63137317 -1.8609376 1.6449847 -1.1822506 1.3734982 0.8347752 -1.4924867 -1.7966535 -1.4144652 0.3850886 -0.71912366 -0.5882741 -0.1693407 -0.740163 -0.21171416 -0.36006507 -1.5950973 -1.2631178 0.7342425 -0.1575974 0.46848077 -0.117765516 -0.6564522 -0.26087958 -1.2221886 2.0551264 0.6077332 1.0427932 2.1728802 -1.2772481 0.27511856 -0.57637435 1.0994518 -0.64617425 -2.4032812 0.5347644 -0.9931309 -1.5055422 0.87635916 1.2762098 1.3788434 -0.08061427 1.4274014 0.6512732 -0.5575376 -1.954377 0.87405235 0.07553433 -2.1007707 -1.3624756 0.09183489 2.2298362 0.19715728 -0.06971886 -0.8477969 0.9016105 1.1233824 -0.3866902 -1.2417616 -2.0479226 -1.0228211 0.628004 -0.37959078 -0.97784543 0.5752358 0.383097 -2.5114863 0.3219049 -0.46747854 -0.48286492 -1.536895 0.59048223 -1.646964 -1.5732118 -1.9188989 1.2605302 0.08957341 -0.049671944 2.4196668 -3.125637 0.88715005 -1.9838988 0.55470186 0.23560488 0.54278755 -1.402717 -0.53522646 4.444364 -0.119151294 0.21441872 -0.2893209 1.1739733 -1.8971446 1.394031 -0.76278436 -0.8728517 -1.8634068 2.0205417 0.4051957 -0.0036822674 -1.000365 -0.861384 -0.8734491 0.6957276 0.38624287 -2.3286734 1.7721174 -1.5156403 -3.039565 -0.26200554 0.24021281 2.8171566 1.0159419 1.3226694 -0.3839013 -0.52904063 -0.7956383 0.27317873 1.4301331 2.2225287 -0.057328716 -0.86126053 1.8356425 0.39719483 0.9591942 -0.7821188 -1.0409298 -0.57112867 -0.91422975 1.723618 -0.2570146 3.3454905 0.4823851 1.5603416 -1.7055519 -1.1848955 0.22867325 0.46816334 0.21058325 -0.8417216 -0.2397535 1.5819155 0.35388875 0.21815483 1.9579476 1.1020359 0.071591966 -0.1722467 2.149222 0.0112166 0.14652407 0.59570086 0.18734847 -1.4180404 0.37962928 -0.17538065 1.7071139 0.958429 1.7722638 0.72933686 0.42346513 1.2108954 -1.2238157 -0.12362239 0.9139268 -0.6865955 -0.36317766 -0.0300072 0.17405857 -1.0050832 -1.2315302 2.0718381 -0.013366931 -0.43542254 0.5306274 0.15466839 1.1439357 -1.4318919 -0.4755906 -0.19517511 1.2577484 0.65075946 0.5887757 1.1915791 2.9080539 1.1967425 -1.2691343 0.19358641 -0.14130147 1.297043 0.86705035 0.4321739 0.9027987 0.4666277 -0.66244376 -0.14760397 -0.30634072 1.6716392 0.13492204 -1.5953678 -0.2705242 1.9547663 -1.4126134 -0.10879207 -0.7625055 0.3143935 1.3009357 1.2774509 0.3848257 -0.36990586 -0.0124842245 2.927866 0.21088786 -0.16309065 0.58328354 0.3585673 -1.6844947 0.51358193 -0.47842127 -0.2917563 -1.1562736 0.9185718 1.8481617 -2.5239172 -1.106529 1.8564266 -0.624887 -0.9218729 -0.64482105 -0.16871563 2.0600226 0.26840356 0.5019401 -0.75179005 0.38700998 -1.2125839 0.759204 0.8737642 0.5482294 -3.3702424 1.0168829 -0.23125194 0.36514667 -0.1379946 -1.3631346 0.0965779 0.45464638 -0.70233375 1.254203 1.0408295 -1.6432878 0.48523054 -1.4930924 1.676884 -0.31800196 0.45610076 -0.5442555 1.5422797 0.7896769 -0.7159982 0.41637406 0.6104836 -0.0013432851 2.0898256 -2.1541278 0.49082142 0.011387649 -0.7892433 1.9438237 -1.9371804 -1.2810631 -1.368148 -2.340127 -1.0416815 -1.5517938 0.05771286 0.02362015 0.12431168 1.3429914 -1.3513932 -0.7267298 -1.2815448 0.25467122 0.5742319 -0.046602912 -1.0727311 -0.79712 -1.0195028 -0.11105541 -0.4313316 -1.5537343 0.33075258 1.5260288 0.7555958 1.2819123 0.7135933 -1.3215234 1.5621798 1.2063112 1.3810711 0.89289176 0.9218063 -2.111032 -0.53670394 -0.52383906 -0.9477113 -0.72483623 0.97773373 -0.85668325 -1.4694662 -2.0733132 0.23830989 -1.9130778 1.2249637 -2.2759616 -1.5433345 0.31435952 -0.59443235 -2.685594 0.801969 0.13626637 1.0184189 -0.6712354 0.0693194 0.58665454 -0.1877969 0.9074398 -0.33593622 0.8306952 0.27963388 0.5211012 0.770996 1.3886434 -2.0686677 0.104521476 -0.5199705 0.6940357 1.1634912 0.08382108 -0.06326006 0.80109555 -0.2829988 1.5804925 2.5996602 -0.5335497 -0.76701075 0.24266653 0.123181134 0.7457573 0.8797157 -0.48652026 -0.25221556 0.115545906 0.27553603 2.8613646 -1.35723 0.025267707 -1.6107521 0.03049106 -0.16100672 -1.5823414 1.2409267 -0.5192453 -0.4297477 0.34699664 -0.6558457 -0.7634278 -0.7401532 0.81751513 -1.236883 0.42597225 -1.014956 2.7116048 -0.9996027 -0.9129597 0.23829673 -0.44382313 -0.3480094 -0.4568148 -1.4859134 0.78087455 0.16391446 2.0147612 -1.5700741 -0.22388738 -0.9758112 -1.1437763 -0.21504878 -0.2860505 -1.9396322 0.26919204 0.007485442 -0.9232967 1.1524024 0.17824143 1.809797 -0.64290094 0.30026218 1.1155639 0.6518789 1.2769096 -0.8902406 0.8075217 -0.7695839 -0.3845334 -0.37750447 -1.0857071 1.4585167 3.5709934 0.12580661 0.6652756 -1.0028499 0.03473196 -2.1287615 0.27831718 0.9326889 -0.9848881 -0.17266347 -0.89707816 -1.110618 1.4635744 -1.6623663 -0.5390651 0.29666716 -0.8350197 -0.12027176 1.7420074 1.6681305 0.21264231 -0.5729552 -0.38106313 1.1836313 0.24536303 1.4283459 1.4131109 0.8973714 -1.5319453 0.9321777 -1.495445 1.0061492 1.9919792 -1.1501352 0.049741026 0.5452399 0.9607568 -0.7193566 -0.06668811 -0.56192774 -1.3274207 1.7634486 -1.1115059 0.25431547 2.0508842 0.8999983 -1.6525968 -0.4204903 -0.36595008 0.87002283 0.5038427 1.1054829 0.30891946 1.3959814 -0.13386218 0.8256412 0.27858403 0.4805223 -0.7945189 0.52051663 0.50145847 -1.3360692 -1.5892855 -1.0521312 0.96775514 1.0350772 0.22541943 1.0245769 -1.0596912 -2.4259415 0.123115 1.4913346 -1.2798054 -2.23272 0.5522428 -0.6565759 -0.56907433 -0.39557457 0.29725266 -1.1978836 1.1450845 -0.933605 0.20756179 2.4362316 -1.0956517 2.0219116 0.6721526 -1.4779652 0.50110835 2.138545 -1.4202925 0.12387823 0.38280603 0.4892372 -1.8184991 -1.6951861 0.3823833 -1.109095 1.7797854 -2.5811586 4.2290673 -1.7387905 1.24584 0.19825065 -1.0794982 -0.55201924 0.97335654 -0.99197716 -1.2168775 -1.3518821 1.0966264 0.34971058 -1.6455879 -1.1906335 -0.20272338 2.576294 -0.97208494 2.0488045 0.45475465 -1.5366815 0.88096404 0.35929653 0.5486828 1.8565421 -0.53337926 0.11993119 0.36244965 -1.2054737 0.8292544 0.25956237 2.2175987 -0.6006008 -2.4582188 -0.35075927 -0.82526344 -0.5176377 0.652906 0.32949406 0.48520216 -2.7140808 1.4396447 -0.32790726 -0.6318261 -5.842456 -0.29675505 0.45114005 0.8142016 1.4542251 -0.470588 1.247519 -0.56198114 1.6130027 2.476248 -0.71119446 0.6594842 0.26370126 -0.51649886 -1.667237 2.641353 0.040488288 0.3401016 5.7987757 -0.38190824 -0.1620217 2.3399408 -0.5198884 -0.74163544 -0.19060712 -1.829341 -0.8084833 1.7164278 -0.13455696 -0.5018176 0.38624853 1.6236136 -1.0393006 1.0594594 0.7927817 0.07233606 -0.76926136 -0.70247006 0.036613006 -1.8898139 0.58888924 1.058916 0.088988386 -1.548161 -1.4326051 -0.6171109 -0.96335405 1.6805252 -0.28807425 0.621935 -0.09201425 -0.23259534 0.86995745 0.30373397 0.5119733 2.0597658 1.3924866 -1.548876 -0.026048614 -0.8723895 0.31314793 0.9344428 0.5981215 -0.59908915 -0.6280686 0.1864939 -0.68423367 -1.9838846 1.8680815 -0.50212073 0.11916833 -0.8888105 -0.873694 1.2946686 0.07042563 -0.43968123 0.63225275 -0.73971516 -0.086726084 0.40734684
𐀂 0.22442031 -0.5950053 0.6790452 -1.8245039 0.34533584 -1.794103 -0.09132088 -0.19157301 -0.26168925 -0.3503599 0.49962056 -0.42631176 0.64222026 -1.9395566 1.7798783 -1.0860739 0.89160126 -1.6943854 0.31304306 0.51560175 -0.5619902 -1.6675541 -0.7270466 -0.77975714 -0.059214048 -1.1558412 1.6471275 0.27583 -2.5716383 -0.09227143 -0.5192361 0.22967644 0.5055751 -0.2964377 -0.7205726 -2.5187535 -1.0131712 -1.2035065 0.019825654 0.8235244 -1.1186441 -1.623561 -0.62726 -0.7305088 -0.20384052 0.9009766 0.70281035 -0.4868723 -1.2878122 -0.4611158 -0.2416404 0.94392323 0.069985256 1.6171114 -0.33152667 0.45014372 0.5412535 0.19971725 -0.8796338 -0.285341 -0.038843736 -0.32573327 0.59337693 0.3726062 -0.5924962 -1.7428683 1.1685578 0.81082857 -0.29271027 -0.30679476 -0.7037273 -0.66977596 -1.8352298 0.3272057 -0.3727442 0.14893214 0.6572773 -0.6118497 -0.8584281 -0.051184166 -0.87791306 -2.0398567 -0.47115964 -0.2304657 -1.5207849 0.38023463 -1.0234505 0.38126934 0.80448735 0.56852174 -0.85178816 -0.011098318 1.4179237 -0.84358394 0.20742501 -1.5414655 0.7461512 1.4041517 0.032214954 1.6234154 -1.4542434 0.56542593 -1.1538019 -0.16673079 -1.3794602 0.9134961 -0.5495785 0.7608459 -2.0303848 -1.4167986 -0.27479482 0.70999163 -0.12116257 -0.12036347 -1.0938118 0.5299803 0.422923 2.8068285 0.96678644 -0.2008047 -0.4076921 0.60640615 -2.1078928 0.3005221 -1.0355601 0.19049667 1.889348 0.22321579 -0.06266768 -1.4664994 -2.5423622 0.76780826 -0.65630907 -1.4226665 -3.2275686 -0.2054835 -2.4724178 1.0776219 -1.9665821 0.13718766 -1.4536139 -0.4310886 1.5810299 -1.9998076 -0.03848278 -2.3670712 0.9957556 -0.15016524 -0.8856531 -1.0847244 0.16768453 -0.7775342 1.9733768 -0.6214764 0.034621626 -0.61546695 1.377142 0.21543363 -1.0103736 -0.35427028 -0.9946937 -0.99832106 2.0498955 -0.18701518 0.74772024 2.1255672 -1.0129697 0.533113 -0.61116415 1.3048892 -1.7839564 -1.9496692 1.0410254 1.7265767 -1.3950487 0.879305 0.93875104 0.70613796 -0.5481537 1.6580212 1.2866533 -0.44114304 -1.0748551 0.99588513 -0.13186514 -0.95026827 -1.2204167 1.3784199 1.5369987 0.06087027 0.2896823 -1.2542684 1.209666 0.6821306 -0.7137666 -0.9779809 -1.4133424 -1.8170501 1.4585234 -1.1107986 -0.8713723 0.18128705 1.3380039 -2.9404147 0.46515203 -0.17119633 -0.32498777 -0.63604385 0.7852107 -1.5779269 -0.6631435 -0.5966428 0.9981394 0.04188148 0.15642591 1.1428692 -4.5641556 0.7787696 0.2783725 0.566455 -0.20888318 0.049361072 -0.8115522 0.27479786 4.4825525 -0.047512524 0.37374845 0.60072464 0.77086747 -1.2031553 1.1783819 0.6670427 -0.45713377 -0.36505428 1.4552407 1.3322018 1.1900369 -0.15272301 -1.0689747 -0.80535156 0.3624985 1.3314655 -1.5936861 1.988814 -1.9720277 -2.311366 0.21567316 1.3494511 3.2558475 -0.28115416 0.40515178 0.26200587 -0.4247518 0.13632491 1.1581467 1.0770617 2.213761 0.62701964 -1.5519063 1.4414471 -0.81772214 -0.6138373 -0.15773235 -1.0229264 1.1559569 -0.36907613 0.91382736 -0.3854601 4.84376 -0.22800387 1.7377292 -0.7966719 0.18909432 0.7981732 0.85585004 0.7270476 -1.13746 0.29273722 0.91197604 -0.46700415 -0.07316133 0.8453134 1.0563893 0.7476165 -0.48446718 0.9535945 0.25126368 1.210952 1.3489609 -0.6552923 -0.21092615 1.0965743 0.32874086 0.72307 1.6677835 1.9527589 1.6033187 0.90372956 1.9645646 -1.4394101 0.70037514 0.7145787 -0.10832892 -0.5295222 -0.07930112 -0.44416943 -2.1220853 -1.2423228 1.3014033 -0.63706607 -1.5197215 0.5462534 -0.2317956 0.76048285 -1.4380364 -0.19538935 -0.23646946 0.38594833 0.91587967 1.254582 0.3169635 3.4003325 0.61695254 -0.20349483 -0.48441315 0.35474953 1.388136 0.6727471 0.25352407 0.6513967 0.85757685 -0.06854834 -1.202364 0.02710181 1.0928185 -0.23312758 -1.7752272 -1.2854688 2.3054361 -0.8379547 -0.090921246 -1.4246149 -0.08967853 0.9540935 -0.86247873 0.36644202 -1.2369642 0.3110038 3.1933613 -1.1423057 -1.3269846 -0.80900747 0.5211117 -2.6492493 0.7939124 -0.92605627 0.76065165 0.8014356 2.3209853 2.4513538 -2.5950804 -0.4763748 1.9282734 -1.0887522 0.13408355 -0.26364675 0.45713332 1.050899 -0.44316247 -1.0915941 -1.2540452 0.7350994 -1.6251488 1.6223993 0.7025421 0.921791 -6.2176642 0.3603397 0.58193904 0.2164935 2.0070314 -1.1416776 -0.10333059 -0.24435872 -0.23152539 0.2419286 -0.019841291 -2.9396033 1.4100611 -1.1539084 1.1000103 0.85331255 0.3567674 -0.25234517 1.9848378 0.31535503 -1.0786922 -0.50246125 -0.18367757 1.0595073 1.7106295 -1.3267838 -0.16643536 -1.2603399 -0.8998537 0.08656409 -0.9637656 0.2614864 -1.0853704 -1.2233332 -0.840362 -0.57732177 0.45364946 0.2305909 -0.6095919 1.9196677 -0.16271968 -0.6662169 -0.97687197 0.59882885 0.20650423 -0.12339011 -0.77191263 0.12459285 -0.86547303 1.1195905 -1.3926138 -1.0771211 -0.09637129 1.05852 0.8752559 -0.2174052 0.65286833 -0.58574 0.63004965 0.67704886 0.33664668 -0.3130857 -0.51580477 -1.9373446 0.08259328 0.2054277 -0.97906333 -0.1165789 -0.13822941 -1.0747787 -0.8386616 -0.8146299 -0.036281675 -2.1244247 0.98208785 -1.7172407 -1.578201 -0.39186475 -0.6334165 -3.513313 1.1753149 -0.36819586 1.0959177 -1.1347008 -0.08507199 -0.044474456 0.8029518 -1.0565621 0.54092836 1.3315024 0.10897806 0.9614575 -0.19671872 0.5123142 -0.15585025 -0.43626893 0.20154227 0.6345756 -0.14327593 1.7754272 0.15579663 1.1563264 0.15003197 0.12552364 1.547103 0.11643381 -0.45594215 0.9238975 0.75508773 0.3849417 1.1527642 0.253336 -0.09176574 0.73403716 1.066115 1.78493 -1.4245144 1.0212172 -0.8695774 -0.5843569 -0.3489095 -1.9040073 0.4412499 -1.5837637 0.67718893 1.1309289 -0.26226866 0.09370407 -1.5895103 1.6529783 -2.4640474 -1.7257007 -0.2860155 0.88655025 -1.2124698 -1.0489095 1.1568377 0.6851926 0.4549471 -0.23427992 -1.4503485 0.20448259 -0.15560393 1.3664529 -1.3650279 -0.48933858 -0.20983225 -0.5045155 1.2108461 -1.3222187 -1.9039049 0.8626334 -0.017598277 -1.1165047 -0.23932262 0.3134451 1.7104404 0.1868549 -0.44305316 -0.3825991 -0.7670409 0.46258166 -2.0584068 0.07696464 -0.012820987 1.0039858 1.2649837 -0.2936802 1.512717 0.27651924 0.7623334 -1.4944552 -0.57482445 0.10850137 -1.9320117 1.1037492 0.2918902 0.3389379 -0.601798 -0.25582752 -2.2220867 0.29588735 -0.033745572 -1.4388896 0.95558506 -1.2510338 -0.64176065 1.4463931 1.1735187 -1.3969047 0.02791091 0.5309816 1.1549873 -0.099585466 0.09447149 1.5673116 -0.16429617 -2.601281 1.4980475 -2.3660583 1.5762963 -0.29497746 -1.5940121 0.35390916 0.19975728 0.9000825 0.8906762 0.7617256 -0.7708617 -1.3076282 1.6201676 -2.247935 0.50940853 0.9397787 0.5388624 -0.8472029 0.84604776 0.30479392 0.6562727 -0.12281413 -0.18254553 1.1951313 0.5168112 0.2386366 1.0070049 -0.3677292 -0.56108487 -0.9180291 0.86629015 0.52074236 -0.9604729 -2.1162581 -2.0396364 0.2925378 0.9757614 -0.37018195 0.96167606 -0.64062184 -1.6825454 -0.4651747 0.2573713 -1.2716383 -0.14447975 -0.86461157 0.48211613 0.3367775 0.31030625 0.6856551 -1.4270768 0.91085577 0.26157972 0.40162528 2.868253 -1.1262112 1.6215159 -0.21310136 -1.1855782 0.5799363 2.4004705 -1.7342008 0.648071 1.9059699 2.193344 -1.4675281 -2.113496 0.64557034 -0.48141372 0.8988736 -2.2828383 3.5576918 -1.8229935 0.8179505 1.1843474 -1.0000416 -0.32489392 -0.40413606 -0.9475777 -1.392683 -1.7986801 0.9752422 0.29825526 -2.4308968 -0.611245 0.34851223 1.0735352 -1.5340307 1.23899 1.6165493 -1.5382881 0.72046983 -0.036136996 -1.0449421 2.2903006 0.3827924 -0.64408845 -0.4004663 -1.3084322 1.4443392 0.7407683 1.3439022 -0.76629466 -2.7597463 -0.5778815 0.3799208 -0.4231289 0.6919627 -0.03004444 0.51282394 -3.3800879 1.0079386 0.6139403 -1.190649 -5.7863097 0.5796443 1.3701613 0.23361696 0.71711004 -0.81471825 1.043971 -1.1532296 0.47556943 0.48404923 0.51923925 0.6764604 -0.7622275 -1.469073 -2.5746124 2.2576635 -0.9255897 0.7102937 7.586676 -0.9897385 -0.71556675 0.63050234 -0.3618702 -1.6715565 1.2420712 -1.7879292 -0.50063175 2.297645 0.54525954 -1.3375856 0.4336892 0.60371107 -0.61206955 1.5165477 -0.3183734 0.7787129 -0.20259133 -1.5635344 0.27947268 -0.93401337 0.056044206 1.6093667 0.15609874 0.14908144 -2.0400689 1.4608244 -0.42531943 1.9343773 -0.06279988 0.31786188 0.10942904 -0.45997536 0.051354505 0.8563117 0.26802912 1.3770533 0.7551211 -1.7500716 0.15879928 -1.0802534 0.40397564 0.37950653 1.3640027 -0.25971207 -0.500912 1.5126401 -0.7464414 -0.7560733 0.6517501 0.17969449 1.5066605 -0.52754 -0.8647563 1.7743678 -0.7768912 -0.21114565 1.069323 -0.0023509886 -0.012804126 0.70507234
𐀃 0.26511756 -0.7464635 0.011665352 -2.3622105 1.2927853 -1.0927559 1.1000886 0.53607297 -2.4094489 -0.72726285 0.50469035 -0.7634961 -1.8678446 -0.63236535 0.96451914 0.48420477 1.2393094 -1.3278204 -0.3019815 0.57767016 -0.3593856 -1.2364564 -0.3362023 -1.260831 0.5589734 0.3128671 1.0543556 0.0066139996 -2.436468 0.41999766 0.13060679 0.028750902 -1.3316234 -0.15976334 -0.5419487 -2.2632217 -1.6748048 -2.0179389 -0.0124733085 0.39532167 -1.1841894 -1.0446639 -0.08559768 -1.5620809 0.66967934 1.1177132 0.18838507 -0.031075118 -0.19005017 -0.63179815 -1.8607093 -0.54626185 -0.72461665 0.88299286 -0.69956946 -0.12308188 1.1110119 0.87053746 -0.9028185 1.12866 -0.3063838 -0.98822224 1.0896585 0.88364995 -1.2544005 0.40494728 1.4928398 -1.219623 -0.6626245 0.26303667 -1.7880422 -0.50539327 -2.2898254 0.7415701 -0.9944448 -0.08510788 0.3631047 -0.95132494 -0.40690932 0.52741396 -1.086714 -1.7008755 -1.4461967 2.210255 -2.836887 0.77492553 -0.8570521 0.8893636 0.4215894 1.0658594 -1.2873883 -1.4351519 1.7551074 0.22960624 0.13940321 -0.1911175 0.9965745 0.49201176 -1.0828196 1.9963783 -0.35684964 -0.11906468 -1.7324544 0.40974018 -1.0179691 -0.6011628 0.27780536 2.4917407 0.065372266 -1.996672 0.04190029 -0.14751844 -0.3282213 -0.9999151 -1.1655525 0.7215414 0.8431439 2.8676205 0.4679147 0.3367259 -0.19041638 0.43607542 -2.0681498 0.92770284 0.5289692 1.8672497 3.1892014 -0.8496482 0.9016635 -1.2943926 -1.7932436 0.7764286 -1.03034 -0.75953716 -2.3284426 -0.644014 -2.0231202 -0.5073394 -1.605367 0.5268669 -0.291536 -0.27887553 1.6155304 0.16708899 -0.23185386 -0.9079235 -1.8451799 0.12064368 -0.26633713 -0.41916907 -0.63351935 -1.3471463 -1.1367661 -1.9611185 -0.16486305 -0.23190479 1.8571459 -0.42485318 -0.04647583 -0.9536178 0.6197424 -1.0678611 1.2049868 0.10281015 0.7429281 1.4270744 -1.2044877 -0.1593852 -0.48008826 1.2293681 0.21652222 -3.4001234 0.7830389 -0.092334546 -3.362116 0.45113266 0.48998347 1.5370027 -0.12059058 1.1903938 -0.12434466 0.37520662 -1.840454 0.05724588 -1.0270995 -0.92675185 -0.7093048 0.22360067 2.550521 0.0055171833 1.2894976 -1.8088925 1.8724378 0.44140524 0.4158651 -1.073745 -1.3040886 -1.5994992 0.56144464 -1.0462143 -0.7483765 0.7138553 1.2283288 -2.0523827 -0.8502217 0.4120455 -2.1641717 -0.9676848 0.8742186 -0.20372853 -0.514044 -0.29374 0.65913135 0.98665 1.5361719 1.6009624 -3.4037988 -0.19760938 -1.18563 -0.6974371 -0.16733639 0.6126184 -0.97535944 1.790525 4.9895005 0.43349645 0.35568726 0.16424198 2.0253217 -2.168787 2.670389 -1.4414341 -0.353976 -1.204417 1.9503002 0.8119565 0.7080487 0.21200322 -0.9151689 -0.005787568 0.27570647 0.9167506 0.1967142 2.014208 -0.44455725 -2.7463958 1.04176 -0.16130604 2.7846766 -0.27748606 0.2523151 0.62420887 -0.4359668 0.13538902 1.7064737 0.90362924 1.9325997 0.38012353 -0.05481358 2.7017622 0.14317428 -0.19332013 -0.5219257 -1.3414388 1.4164808 -0.66275704 1.0515432 -0.009870203 3.9700527 0.78567946 1.1771134 -2.1264195 -0.3138926 0.6105502 -0.31996375 0.3830132 -1.3027854 0.39524686 0.59437186 0.53146327 -0.7126574 0.641589 1.346631 -0.25319058 -0.9839461 1.3817325 -1.935971 -0.016848117 0.4814108 0.2693422 0.46655735 0.90598077 -0.7998867 0.97222507 0.71620584 1.0378199 1.6607132 1.8402481 0.33426875 -1.5220916 0.12792964 0.48804376 0.29937464 -1.6543189 0.836014 -0.09855605 -1.8817691 -1.0887522 1.510135 -0.38353774 -1.866505 1.0768598 0.15488309 0.5735565 -1.0840431 0.17490782 -0.8275076 0.9256492 1.5689443 1.1969601 0.67596424 4.1445737 -1.1463872 -0.99282926 -0.22259241 1.8946056 0.5868054 0.16048415 0.37165508 0.90863127 0.16881762 -0.1999543 -0.15033412 -0.15318277 0.062281307 -0.6500783 -1.146379 -0.3189094 2.1666234 -1.5010314 0.3371239 -0.11888442 -0.7716062 1.9101886 -0.43531418 1.0918964 -0.05320162 -0.35645923 1.5651922 -2.789184 -0.14653403 -1.3663263 2.1641092 -2.598876 0.6011953 -1.6788175 0.68220085 -0.8827267 0.74052995 1.6965816 -2.076808 -1.5654485 2.6031063 -0.55031 -0.6557643 0.4068653 -0.015215115 1.7341357 -0.17914405 0.4846859 -0.74290454 -0.19681492 -1.0744476 -0.61600703 -0.06494395 0.2720531 -6.0509243 0.3760297 1.4316409 -0.8048361 1.5703049 -1.5843912 0.21524425 -0.37203816 -1.3890868 1.0349675 1.0377612 -1.480309 1.1941395 -1.8182176 1.1511823 0.4201849 -0.223093 0.5829782 1.6764501 0.8409159 -0.06429355 -0.122026674 -0.3330225 1.155831 1.1866617 -3.2821236 0.75925195 -0.6830982 -1.21953 1.3775202 -1.8097346 -0.9133788 -1.0218662 -1.5136161 -1.679393 -0.9668872 0.79193413 0.19683874 -0.11053835 1.8523177 -1.0479409 -0.62257576 0.10603865 -0.6462122 -0.72888404 -0.068198845 -0.64357513 -1.1847416 -1.730306 0.7335786 -2.135154 -0.81841046 -0.57907856 2.1286197 1.2232388 0.31806412 -0.26499608 -1.3354206 1.5819889 0.95808434 0.9782494 1.1133995 0.22601472 -0.7987964 0.44879687 -0.3672503 -0.41431537 -0.66740704 -0.49721566 -0.4301122 -0.433364 -0.13801074 -0.024354514 -0.8251614 0.74195516 -2.7931864 -0.18442446 0.082438044 -1.7551643 -3.4148128 1.0994054 0.17454681 1.6580048 -0.43986785 -0.368815 1.3433079 0.24087483 -0.7536275 0.8564129 1.3022466 0.397892 0.7451766 0.38153055 1.7815446 -1.0660826 -1.7279544 -1.1016831 1.3990425 -0.7130994 1.2102268 0.7400336 0.42558116 1.1560249 1.0807326 2.7425854 0.3871799 -0.38489532 0.11135057 0.4475619 0.6317239 -0.2565618 0.09772519 -0.21039392 -0.10992025 -1.2542089 2.2806804 -0.46695748 1.173903 -0.8466021 -0.041197933 -0.17714587 -1.7167807 -0.08169676 0.15957251 -0.18241905 0.12235494 -0.20892663 -0.08646615 -1.1816043 2.6832924 -1.9857436 0.48214847 0.17128669 1.3337252 -0.6689679 -0.37382206 -0.4667332 -0.24230407 0.5303421 0.11118403 -1.6358594 0.7699099 -1.2284316 1.7529714 -0.91272855 -1.377947 0.9607112 -0.35866553 -0.30513647 -0.8253226 -2.194818 0.34400165 0.0034708108 -0.8846211 -0.7541411 0.15820843 1.92885 -0.02339039 -0.19284396 0.11759647 0.12802804 1.0376705 -1.9598817 0.77908474 0.83436453 1.6300582 1.3114066 -1.7551159 1.6650301 1.235864 0.016015327 -1.4282801 -0.91129154 -1.2874476 -1.311479 1.1583624 0.7781737 -0.1437517 -0.36967906 -0.02079644 -1.4303559 0.042807646 -1.0555018 0.18293293 0.4698704 -0.80508226 0.8702299 1.2222568 0.43813583 -0.5703729 -0.799029 1.1090367 1.6655917 -0.38214198 0.1654201 0.63748425 0.7937134 -2.901571 1.0499287 -1.0388414 0.786429 1.662125 -0.85996634 0.12423328 1.1715196 0.8293784 0.7979652 -0.8545817 -0.6549591 -0.84820694 0.9295334 -0.82929605 0.53453803 0.79937166 -0.18673337 -1.1072292 -0.22986467 -0.6482517 0.24000117 0.17078952 0.41266805 0.7755351 1.1104783 -0.3757491 1.3036186 -0.095497355 1.1107032 -0.7797914 0.13594922 -0.5633731 -0.86065346 -0.85630167 -0.5936223 1.2990402 0.79659724 0.33453256 0.73546755 -1.0740873 -1.7887083 0.99769527 0.43672642 -1.08827 -0.31864437 -0.92489296 -0.37408382 -0.43687394 -1.2137735 1.7262838 -0.98952824 0.9415936 0.14973655 -0.7577524 1.8936659 -0.0148559855 2.4519134 0.91684914 -2.5863295 -0.6829802 0.99521095 0.19056797 -0.35435513 -0.107896954 2.0457318 -1.5939409 -2.4800124 0.7562177 0.05452201 1.2930859 -1.642011 4.0435686 -0.9902539 0.23020071 0.17607446 -1.2148058 0.5142334 0.120386794 -1.1996025 -0.32183015 -1.2763479 0.44835022 -0.4180808 -3.0319967 0.36396357 -0.09109438 1.0914044 -0.7922137 1.2563177 1.374603 -2.056733 0.048005052 -0.4419022 -0.031599496 2.49101 1.2410465 -0.18721755 0.5604648 -1.1484886 1.7616036 0.58514017 1.4442583 0.4003222 -1.8214104 0.6828537 0.74571276 -0.95187783 0.6156225 -0.05891369 0.2849261 -2.0773613 2.3491652 -0.77917576 -1.0856622 -5.65691 0.33477184 1.4431988 0.98637563 0.45614728 -1.0078211 0.9872811 -0.39863163 -0.32695422 1.88423 0.32557896 0.5685372 -0.9706202 -1.0248605 -2.290146 1.7421739 -0.15019113 0.9981662 6.848796 -1.0784441 -2.4859312 0.01744433 -1.4889905 -1.5000165 1.595022 -3.0611703 -1.2242856 2.2430713 1.1720809 -0.7362283 0.49297816 0.7797446 -1.1176758 0.67442644 -1.3247229 0.4189608 0.191634 -1.2611905 -0.16547371 -1.126956 -0.5398268 0.20113884 0.10433572 0.33513185 -0.28578663 1.7292635 -0.20369942 1.1533473 -0.15491122 0.45608437 0.0023610096 -0.5727785 -0.2004111 -0.017390192 1.2459371 1.1911986 -0.6841726 -2.112842 0.94441533 -1.6124327 -1.1623155 0.53231883 0.79685 0.53561527 -0.53466713 1.3006842 -1.2997082 -1.9253393 0.8354638 0.6384191 1.1036026 -0.8112908 -0.9558696 1.405874 0.07705022 1.4732952 1.6877142 -0.4658434 -1.259097 -0.49672222
𐀄 -0.19095388 -0.8688802 0.9219558 -1.0953598 0.709137 -1.2683821 1.5681814 1.49291 -1.3997239 -0.375144 1.760339 -0.16049361 0.14735147 -1.2066294 2.2115214 -0.49611154 2.043666 -1.5061849 -0.640628 0.34046844 -0.21906601 -1.8735667 -0.5486811 -0.143105 -1.0595759 -0.72732353 1.5628209 0.80927444 -2.4197776 0.5221047 0.096804105 -0.36269763 -1.2191758 0.054424662 -0.5971154 -1.1866336 -0.17889817 -2.0222597 0.06771748 0.07958991 -1.9479411 -1.5368352 0.19213107 0.10927598 -1.1432395 -0.05125684 -0.44253072 0.50691956 -1.8634384 -1.2206348 -0.55052173 -0.6346889 -1.413336 1.0407176 -0.24812657 -0.2549785 1.060163 0.31029817 -1.4403404 1.3389089 -0.5765734 -0.8430251 0.27476582 0.46270993 -1.1681961 0.08974519 0.9082208 -0.95789343 -1.0015547 -0.68544877 -2.8578932 -0.41861776 -1.5128689 -0.42428988 0.32673937 -0.17128375 0.8313462 -1.3931906 0.33165488 -0.41921616 -0.18502481 -2.0321488 -0.5941408 1.146472 -2.7724802 1.1504691 -1.7227292 0.74784684 -0.8174861 1.2594286 -1.7607744 -1.2618337 2.2057166 -1.4010291 -0.22633871 -0.88413405 0.49595574 -0.20553939 0.41374275 2.3114202 -1.6201446 0.568971 -2.5249205 0.350995 -1.414648 0.20331393 0.33180204 2.4852405 -1.5643091 -2.7622132 -0.38847393 -0.00085284805 -1.4033133 -0.94405884 -1.4731884 0.8306868 0.17185947 2.5983322 0.7505381 -0.5659835 -0.54839796 0.5779043 -1.7778655 1.1501478 0.48517436 -0.562643 2.1830392 0.15872002 1.4372748 -1.4551677 -2.138141 0.20847897 -1.4165058 -1.0734891 -2.5879889 0.546478 -1.6089159 1.0093368 -3.3078485 0.9523044 -0.9192503 0.29714406 2.058023 -0.9491378 -0.86007464 -1.1544785 -1.6873695 -0.6930014 -0.47758433 -0.6555073 -0.96889 -0.49706557 -0.24405806 -1.4594538 -0.32369837 -0.83703095 1.9736576 -0.14313738 -0.73892385 -0.45673403 -0.16572656 -1.4922098 0.6980386 1.671902 1.1579723 2.1572747 -1.1372657 0.08599783 0.13885593 1.6712768 -0.680138 -2.4325645 0.5811343 0.62713224 -2.6355293 0.5474114 1.048073 1.5544595 -0.21826759 0.6676081 0.8140412 0.07948113 -2.737603 0.92157 -0.42459893 -1.6059532 -1.1181936 0.3157787 2.146783 -0.073756576 0.7677082 -1.3224564 1.7051343 0.43479532 0.28307042 -2.6682696 -2.6256607 -1.3771148 1.1053777 0.33902308 -0.95325947 1.5456542 0.8846983 -3.01589 -0.94230974 -0.20423265 -1.4941387 -1.5027109 0.6147201 -1.3692147 -1.2622867 -1.8630443 0.8160055 0.26107693 0.35009953 2.0695603 -3.5581856 0.3211935 -1.7982372 0.29436675 0.6592029 0.9855511 -1.023797 0.49862862 4.170798 0.51750404 -0.05773473 0.55451095 1.8893151 -2.0056603 1.4456979 -0.6734585 -0.41599587 -0.6498222 1.295465 1.0252538 -0.31462356 -0.49917993 -1.2426664 -0.9096729 1.4321011 1.1145346 -1.308537 2.5863922 -0.46770906 -3.1602197 -0.39510623 0.37134206 4.0407023 0.63464516 0.14356765 0.03591287 -0.23190492 -0.43796924 1.231344 0.7778513 2.2847471 -0.2663699 -1.2455804 2.6489375 -0.40706512 0.07785121 -0.84651446 -0.7827131 1.2833883 0.19606575 0.6073882 -0.90614784 5.057387 0.80595726 1.8099915 -1.745683 -1.1506096 1.1499345 1.1534971 0.38138634 -0.7925314 0.74214566 0.9046959 0.62070173 -1.6860365 1.5616993 1.3206052 -0.11579262 -1.1229998 1.3680155 -0.292482 0.21034652 0.99267656 0.10390825 0.66596276 0.99162585 0.15147357 1.1727481 1.5515652 0.79953265 1.7620649 2.3669715 0.34788007 -1.2714874 0.11697619 0.4648897 0.29794338 -1.7554524 0.38852212 -0.17354752 -0.8167018 -1.9294019 1.9370514 -0.06855756 -1.8958907 1.7066275 -0.13761517 1.7164288 -0.7939049 -0.0969169 -0.7293325 0.8748632 0.91882795 2.1237268 1.351232 3.5231235 -1.16617 -2.13677 0.7116437 0.8654235 1.4169071 0.8337036 0.08108361 1.1002378 -0.32441002 -0.95078146 -1.0455079 -0.21613248 0.81928754 -0.16161254 -1.6591586 -1.1426841 2.0756264 -0.6999631 0.48149353 -0.30260623 -0.66158026 1.6127373 0.36865422 0.1638791 -0.2803517 0.32074454 2.6125882 -0.94338 0.17335576 -0.7573503 1.803516 -1.6845484 1.0055966 -1.318842 0.4683723 -0.8084455 3.3410869 3.0214815 -2.7300828 -1.4066819 3.534259 -1.2717183 -2.9436772 1.0448804 1.0872073 1.8985204 -0.47747755 0.41430184 0.11602259 -0.4477992 -1.1585356 -0.50247914 0.85079014 1.3571107 -6.2210474 0.8555193 0.8901465 -0.40527412 1.8585702 -1.2988368 0.43190685 0.09631541 -1.500497 1.5656241 1.0703961 -1.8035693 1.6825305 -0.69048095 1.7351617 0.10023177 0.2881433 -0.5005863 2.1623824 0.4282256 -1.390787 0.62091506 -0.32703856 -0.10058549 0.20628442 -2.249616 0.36075392 -0.7548493 -1.3451211 0.85388535 -1.4275217 -0.8699392 -1.3203841 -1.1259105 -0.7120784 -1.3212112 1.7699536 -0.038303554 0.88417375 1.4690869 -1.5619036 -0.59063053 -0.2550551 -0.51442593 0.56751 -0.41604203 -1.0019573 -0.2517619 0.13963027 0.549046 -1.0436549 -0.4327793 0.5395114 2.4662056 1.2755855 -0.29116774 0.51444936 -1.7585496 1.4263467 1.350024 1.1316675 0.510014 -0.47096297 -1.9750535 0.17773579 0.39327678 -1.0031606 -0.89435905 -0.25864798 -0.7769162 -1.4153184 -0.24226864 0.22489381 -0.7944845 1.3567784 -0.6702553 -1.1712302 0.67416763 -0.07458106 -3.442873 2.415609 0.8541751 1.4442959 -0.31100756 -0.3045384 0.37473676 0.61619705 -0.8529151 -0.41671538 2.782782 0.2894724 1.7661049 0.33801138 1.2811813 -0.23161656 -0.37424296 -0.82710814 0.8691222 -0.20683722 1.1148094 -0.041386142 0.31847394 0.13319685 0.9920765 2.0032923 1.8883752 -0.14117363 1.5865663 -0.08065741 0.032965332 0.40525413 0.24434866 -0.05154182 0.49411306 0.29068485 1.9401464 -1.9705337 0.34328875 -0.1005987 -0.31767008 -0.6198178 -1.2770448 0.33558884 -1.1592859 0.06802272 0.36847082 -1.0647963 -0.2801201 -1.0455767 2.3587563 -0.4815061 0.2999111 -0.24124908 1.7470409 -0.2659431 -1.1777079 0.9024444 -0.6384977 1.1550591 1.1312429 -0.84370005 -0.20413528 -0.64832747 2.3948276 -1.4874133 -0.79895496 1.55185 -1.0160306 -0.28469282 -1.2747144 -3.0027092 0.34640914 -0.4939073 -1.2594517 0.34111398 0.06567872 2.3931608 -0.8243278 -0.66871136 0.73740643 0.91930276 0.7658372 -1.793472 0.7466479 -0.9223425 0.060024384 1.839696 -1.2417884 1.5322286 2.3308568 -0.8545008 -1.591775 -0.5645398 -0.044083055 -2.2220504 1.4456156 1.002918 -0.5744369 0.10755645 -1.0382078 -1.999482 0.40455067 -0.6925807 -1.0291951 0.18806997 -0.9739136 -0.32325417 1.2614495 1.200747 -1.0196801 -0.9257036 -0.5397255 1.8790966 -0.04706568 -0.7701436 1.8547546 0.61511195 -1.7407876 1.5509784 -2.056428 1.3609613 1.1304634 -0.58727354 0.53085965 -0.011562024 0.9805064 0.53305113 -1.1152933 -0.36080325 -1.337329 2.0731509 -1.5790012 1.1538315 1.9167528 0.38419735 -2.0736113 0.9475966 -0.22784002 -0.121561505 -0.20833433 0.2538599 0.9520315 0.06690045 0.5614789 1.5677959 -1.0352161 0.77145576 -0.68610644 0.93958074 0.6118344 -1.4625368 -1.4172931 -0.5520478 0.6626635 0.84058684 0.0064176866 0.7785937 -1.5899582 -2.6959143 0.6030634 0.6133345 -1.5044615 -0.9969436 -0.95115656 -0.17634055 -0.45728326 0.4987587 1.6784812 -1.1629342 0.6494022 -0.06386024 -1.8723727 2.1765697 -0.82303506 1.3661323 0.6259665 -1.9487337 -0.60723805 2.574369 -0.79702425 -0.52611446 0.18021937 1.0169381 -1.6810948 -2.5076709 0.56966275 -0.65451926 1.4274367 -2.8673148 3.015277 -1.8328593 0.93588275 -0.47216132 -0.9652851 0.41588548 0.3311806 -0.23265395 -0.7920282 -1.5724714 1.7487438 -0.8621484 -1.3897012 -0.8412001 0.25681567 1.4581516 -1.1461824 1.1891311 0.35490942 -0.88868374 0.7449209 -0.42103818 0.44119588 3.1051834 2.0391207 -0.38883552 0.25992057 -2.5690184 0.36967206 0.14094473 1.8223615 0.019549381 -2.3105881 -0.7586122 0.9212947 -1.3652096 0.19458084 0.58865106 1.038624 -3.039498 1.6722219 -0.2026896 -1.0832274 -5.0197635 -0.48866144 1.0131847 0.34904683 0.6203958 -1.39916 1.1678399 -1.4044203 0.94050485 1.6874677 -0.16194105 0.107648715 -1.0573248 -1.3736401 -1.7710404 2.706319 -0.5803536 -0.06913335 7.979172 -1.903845 -1.5032643 0.7490694 -1.2323941 0.08562372 1.486161 -2.4244957 -0.9206714 2.6586032 0.5404365 -0.31425652 0.6594227 0.19918016 -0.282647 0.83852106 -1.2929226 -0.06118212 0.21057145 -1.2627409 -0.191156 -1.4991003 0.08338057 0.904042 -0.31736323 -0.22398823 -0.75398284 1.387464 -0.6035392 1.6083506 0.4680725 -0.05751196 -0.2255071 -1.7748547 -0.004911698 0.605085 0.92360866 1.6595387 0.6635831 -2.28427 0.5336848 -2.3694828 -0.8471005 1.2190719 1.5061857 0.3297321 0.5585648 1.3997344 -0.6846856 -1.4369563 -0.012849971 0.85294604 -0.7384731 -0.21986274 -0.52889085 1.616186 -0.541141 1.0129426 1.0611819 0.007397548 -0.6895469 0.14803068
𐀅 -0.71079445 -0.8963244 0.82704645 -1.464843 0.48225105 -1.2052889 1.9520103 1.1577579 -1.5733719 -0.61279 0.56046575 -0.6535257 -0.4947301 -0.95155287 2.602281 -0.5993084 1.3176647 -1.4607538 0.37703124 0.8605556 -0.58441293 -1.9036384 0.55058956 -0.99350333 -0.70367616 -0.6139758 0.8342604 0.66406184 -1.7103475 -0.6071234 0.2015912 -0.07974529 -1.3386779 -0.5804792 -0.92767245 -2.311044 -0.5350255 -1.6967725 0.080693334 0.7125318 -1.16264 -1.6652675 0.07424571 -0.021692632 -0.27164447 -0.22775549 0.07445202 0.24486148 -1.9835641 -1.6713552 -0.57214004 0.49020398 -1.5488725 1.3888453 0.14694862 -0.035332117 -0.017958365 0.08225465 -1.4579128 1.4402727 -0.88944453 -0.53361017 0.4002623 0.30278364 -1.6632849 -0.5479668 1.1018484 -0.9896455 -0.9522182 -0.39774477 -2.9848492 -0.77009493 -2.3153796 0.43035626 -1.6598967 -0.18486668 0.40956458 -1.0029619 -0.4102572 0.06629696 -0.25783128 -2.0934656 -0.27725095 0.9461401 -2.0280228 0.8702547 -0.6560307 -0.28576255 -1.0471389 1.0680252 -1.5381833 -1.6181664 2.9459605 -1.2612846 0.17615584 -1.4768817 1.2760057 0.83771014 -0.5559782 1.7878716 -1.6558479 0.40568486 -2.920356 -0.026203405 -0.57469654 0.11437376 -0.5218238 2.2323027 -0.55579305 -2.801721 0.37621614 -0.82986057 0.1554194 0.050424702 -1.1957579 0.7598842 0.28989726 3.0042534 0.91113997 -0.61663324 -0.37524825 0.7482514 -1.7309663 1.6215463 0.83981043 -0.027924871 2.0656753 0.21080083 0.7743007 -1.3623036 -1.1319128 1.403668 -1.4708937 -1.1632625 -2.3691828 0.28710014 -2.159891 0.8142326 -3.3232796 1.624324 -0.22971381 0.15636218 1.7977408 -1.1365091 -1.104933 -2.2082565 -0.2709354 -0.46708113 -0.24542336 -0.6466962 0.58785886 -0.8137499 -0.14077702 -1.6807487 -1.8621014 -0.938595 1.6493411 -0.12707935 -0.20928282 -0.56641555 0.22626102 -1.1357577 0.4397123 0.9926189 1.0486251 1.3429862 -0.9891785 -0.13032158 0.0278976 1.2274634 -0.38226947 -2.839782 1.1474649 0.52095056 -3.1755254 0.7366786 1.6959913 1.6076003 -0.40903342 0.9670901 0.9764529 0.07052793 -3.0176558 0.3574649 -0.8384021 -1.0216146 -1.1019795 0.24813297 2.6984282 0.00932427 0.80784625 -1.8489138 0.75538725 0.5657611 0.31560203 -1.6847607 -2.1048744 -2.0624454 0.11425924 -0.3719223 -0.1729479 0.30300698 0.6660101 -2.9509158 0.20700556 0.7725451 -1.9141638 -1.4021555 0.6241983 -1.6789821 -1.3162752 -2.2367177 1.0584102 0.4064241 0.8748315 1.2237362 -2.9746215 -0.32150507 -1.4012821 -0.3867691 0.5368081 1.1838636 -0.8431119 0.7454022 3.7530391 -0.049926315 0.90434635 0.6301037 1.7607734 -2.340853 2.1496992 -1.3499986 -0.8708848 -0.92718995 1.4581612 1.2204983 0.33076245 0.30993718 -0.8426043 -1.3100353 1.0363938 1.1012069 -0.8230357 2.4489262 -0.2590201 -3.0076993 0.41108242 0.84196264 3.6262655 0.43709975 0.17943907 1.3576661 -0.31395385 0.039784957 0.6218335 1.9844054 2.3706372 0.6225662 -0.54666275 2.4529896 0.16787784 -0.14088404 -1.6988322 -1.4177588 1.6870936 0.27465618 1.5993906 -0.77122694 4.847751 0.12998863 1.1342298 -1.2478516 -0.9305953 1.0512955 1.0413402 0.6542849 -1.5044528 1.4354337 1.1226141 0.09043874 -1.7070427 1.4031677 1.3602079 0.60809666 -1.6344419 1.0999197 -0.4337043 0.037530053 0.10861013 0.27998263 0.36895704 1.3378129 -0.43282172 1.5714585 1.4867239 0.6656989 1.4284456 2.7774882 0.6020876 -1.2984064 -0.014725478 0.29714033 0.7106134 -3.1599905 0.6238771 -0.42688775 -1.669235 -2.1825197 2.1667795 0.10502342 -1.3806942 2.6293073 -0.19433656 0.9929777 -0.10362694 -0.7814693 -0.63398015 1.2855362 0.7981069 1.9638473 1.3030603 3.5475097 -1.3196445 -1.3690189 -0.00037791897 0.53804654 1.8944155 0.6091396 -0.13933785 0.6799403 0.41033265 0.24334043 -1.1732497 -0.47747874 0.09333486 0.16515438 -1.5593643 -0.78771245 1.7525691 -0.70800376 0.45064726 0.2794221 -0.7521927 0.7849271 -0.13975124 -0.12421799 -0.11241055 0.0938616 2.9442348 -1.9233985 0.45257273 -1.3352315 1.7001479 -2.7466664 1.0032674 -0.9529048 1.7901701 -0.7809845 2.6177976 3.0543668 -3.4750571 -1.1059655 3.2203698 -0.2970656 -1.3136262 0.7924355 1.3349893 2.1178174 -0.054060973 0.68240213 0.5639548 -0.7236551 -1.4365484 -0.4567222 0.42740262 1.2449545 -7.0261736 1.2095472 1.1992399 -1.327034 1.597452 -1.377723 0.85056657 -0.036939915 -1.4991126 0.7452734 1.0017408 -2.1908224 1.0779817 -0.8412267 1.5186338 -0.45694938 0.044471543 -0.64614975 1.8679334 1.0714983 -1.4809015 0.1979686 -1.0920275 0.4629928 0.87857664 -2.0733116 -0.24788305 -0.18006764 -0.848466 0.57100195 -1.5064065 -0.85125756 -1.737836 -1.2617035 -1.3621583 -0.76149684 1.5513415 -0.30998662 -0.5173936 1.284333 -1.0235876 -0.3608869 -0.27844533 -0.3450406 0.9619388 0.23355629 -1.9886178 -0.037756447 0.020245718 0.6427565 -2.2487144 -0.76911277 0.8883297 2.2487838 0.9987001 -0.11705892 -0.17710622 -1.517199 1.7574247 1.0987906 0.94975865 0.84083766 -0.4066918 -2.0677276 0.66086876 0.5148528 -0.55131054 -0.5836893 -0.41086122 -0.7343812 -1.6304196 -0.30800444 0.14054245 -1.1014518 0.560721 -1.1231927 -1.4099307 0.27237147 -0.7812161 -2.7223063 2.3483622 0.48261628 0.91767025 -0.4120519 0.7129429 0.575779 1.0788932 -0.35103557 0.6247672 1.5106727 0.39087927 1.6010414 -0.050746184 1.6508039 0.18210657 -1.3064147 -1.0061157 1.6557456 -0.22065362 1.3597347 0.7220412 -0.13001542 0.9999664 0.8337328 1.8491946 1.609984 0.014804807 0.88946587 -0.27760094 -0.12849571 0.3629121 0.8061455 0.8060029 0.9467406 -0.27664995 1.5021336 -1.8654685 0.588893 -0.6709142 0.24917142 0.80023944 -0.3682836 0.633378 -1.4046541 0.89377296 0.8846872 -0.74448633 0.24887413 -0.23322247 1.8541365 -1.2833054 -0.59647596 0.27056012 1.1861359 0.25496364 -0.30548576 0.15806226 0.52029955 0.99019384 1.6660382 -1.7023082 -0.5254927 -1.3309164 2.2154713 -1.2981683 -1.1120347 0.8014141 -0.28347048 -0.08830158 -0.90811914 -2.7599475 0.32216284 -0.68033606 -1.19087 -0.5412335 -0.9511993 2.39916 -0.7909934 -0.65657294 1.5661151 1.1084144 0.6139128 -1.4030093 0.31743518 0.008696822 -0.048704073 1.3915304 -0.8552125 1.0762721 1.8636192 -0.43334836 -1.516958 -0.46667525 0.41493428 -2.18867 1.230605 0.5234175 0.22895147 -0.08216344 -0.5366959 -2.2224398 0.5299466 -0.16680127 -1.2852887 0.43069944 -0.62372345 0.38801336 1.5021143 0.8687651 -1.5754205 -1.2440317 0.315202 1.3391771 0.32544804 0.027789632 2.4247546 0.05570541 -1.950472 1.601902 -1.8493026 1.0391724 0.6832522 -0.89333266 1.2681056 -0.12463026 0.95759314 0.25500897 -1.8489035 -0.16272682 -0.2882656 2.1214845 -1.5273178 0.64150584 1.2887402 0.5083768 -1.9053788 1.6772739 -0.12449643 0.4714365 -0.06328356 0.013376361 1.0016135 -0.36587727 -0.5254702 1.4579157 -0.86383164 1.4884157 -1.4458407 1.3179635 0.63573736 -0.8893713 -1.6619481 -0.14525953 1.6731205 0.61622673 0.32491693 0.5996256 -1.8845304 -2.9925249 0.057933453 0.91733956 -0.98939675 -1.3042997 -1.2932336 -0.59779596 0.022978533 -0.6040604 1.4351887 -1.4225696 0.15802552 0.9326527 -2.3125458 1.9844424 -0.58970195 1.7181206 -0.031331137 -2.108383 -1.1372234 1.7456033 -0.7778908 0.120744996 0.50453025 1.3554878 -1.9481163 -1.7858949 0.5150081 -0.82768404 1.0136839 -2.4069116 2.0067084 -1.2406634 0.14419645 -0.7695289 -0.991465 -0.81947213 -0.016262555 -0.87322146 -1.0568047 -1.8552868 1.6816384 -0.020318992 -1.3042581 -0.5169502 -0.39447802 1.2599143 -1.0490487 2.459338 0.7875744 -1.8177671 -0.42435747 0.11649018 -0.09736213 3.1529953 1.9048694 -0.32385048 -0.012298392 -1.9276564 0.57237154 0.7644955 1.2771586 -0.054094844 -2.3043594 -0.3899601 1.0806115 -1.233028 0.24912211 0.73961127 0.19361901 -2.9463952 1.1521803 0.9391361 -0.29305783 -5.055098 0.6074994 1.4636229 0.4590527 0.3242325 -1.2503049 0.9696263 -1.4433615 0.04718957 1.8268092 -0.31882188 -0.092236385 -0.73988396 -1.0976998 -2.4682827 2.7798889 -1.4286486 0.35110813 8.691692 -1.1048758 -1.6937895 0.2543589 -0.8648094 -0.96807605 1.8603458 -1.952565 -1.323111 3.002325 0.5513743 -0.5942691 -0.032497924 0.5261905 -0.39191756 -0.03774297 -1.2881769 0.2651785 0.32045454 -2.127581 0.24100877 -1.9424734 0.49019316 0.49109197 0.060679775 -0.9660004 -0.42672586 1.3685244 0.5250816 1.969386 -0.563528 1.3416351 -0.96478266 -1.8781075 -0.7114621 0.48777872 1.3733758 1.5875539 0.9849706 -1.2132816 0.57910204 -1.300041 -0.31052196 1.5022058 0.9694646 -0.9201265 0.68471885 1.8682584 -1.3690095 -1.4281244 0.6379449 0.1939365 -0.004630101 0.020258779 -0.41846535 1.908949 0.05176757 0.37966684 1.2565157 0.08082337 -1.2618406 -0.21889432
𐀆 0.30347893 -1.3145572 0.748201 -1.6370733 0.32093015 -0.95032364 0.7215398 -0.49147537 -1.3779973 -0.822639 0.7089011 -0.6366578 0.20581172 -1.2189096 1.6918297 -0.48449448 0.84485966 -2.261435 0.31906173 0.32343394 -0.155349 -0.9174125 -0.6717914 -0.19220166 0.24301498 -0.70860744 1.961941 -0.19879352 -2.6081073 1.5060803 -1.2867607 -0.10657721 0.17574012 -1.5404706 -1.4745066 -0.7173415 -1.6851526 -1.4660529 0.09965752 0.34871605 -2.6708004 -1.1498656 1.0238484 -0.044864673 -1.2734253 0.75179434 1.0012878 0.43325564 -0.17898662 -1.554191 -1.6857686 0.22127509 1.1687953 1.7660333 0.7867263 -0.18577252 0.8673368 -0.4710332 -1.7143654 -0.7657208 -0.60511905 -0.8815576 0.55370677 0.952106 -0.4726261 -0.5039773 0.98042566 1.0903004 -0.5202486 -0.16220364 -0.8006973 -0.05230979 -1.4011558 0.39734623 0.18183847 0.18420435 0.43330452 -0.4132229 -0.77847433 -0.6597253 -0.60036314 -2.1190357 -0.5667318 -0.032288115 -1.9335907 1.1734282 -1.5294652 0.5774469 -0.0061229793 1.3650117 -0.014106949 0.1655184 2.0198371 -0.96495456 0.5410484 -0.47854593 -0.574333 0.08969082 0.5187082 2.465596 -0.420321 0.5482658 -0.63314325 -0.12061373 -0.3801881 0.47027496 0.37994927 2.0033858 -1.1129985 -0.65451056 0.012692672 -0.00035182197 -0.92612594 -0.96931696 -0.62032634 -0.9386349 0.7889466 2.7723694 0.8844746 -0.046618026 -0.86863154 0.56707704 -1.2933962 -0.017880848 0.3380237 1.0872245 2.1132557 -0.12341049 -1.2865881 -1.5343995 -2.160416 0.7955161 -0.596743 0.13792367 -4.7806735 -0.5806952 -1.3529634 0.60997987 -2.3183515 0.71876156 -2.2547991 0.4070076 1.9365283 -1.5121989 -0.9911522 -1.4215066 0.37507102 -0.5116517 -1.0857916 -0.9461823 -1.0497397 -0.69906163 0.9059329 -1.692721 -0.44576278 0.021387663 1.2491179 0.30323234 -0.66286755 -0.44126165 -0.9868007 -1.493264 2.1482599 0.16760121 0.6159217 1.8350881 -1.0377972 -0.271147 -1.1531303 1.3357873 -0.60192454 -2.1844773 0.5653964 -1.0503998 -2.057272 0.13056982 1.3603926 2.521663 -0.9352417 0.7768326 -0.30281365 0.3973931 -1.6346791 0.5986927 0.94726735 -1.4885415 -1.9260097 0.1420905 2.0590854 -0.08798372 0.40963003 -1.1219717 1.4692653 1.0907189 -0.60703003 -1.0946652 -1.7238652 -0.51913655 1.7984375 -0.23184556 -1.2293366 -0.067924485 0.20338075 -2.9040468 -0.25681156 -0.8131545 -1.7427648 -1.9717577 1.4553349 -0.671487 -1.2554849 -0.760134 1.0783257 -0.3932066 1.2319598 1.6496226 -4.746597 1.5244954 -1.1275582 -0.0806393 0.36276364 1.4510825 -1.1477869 -0.73982894 5.128545 -0.039746307 0.13984242 -0.27996466 1.5952234 -0.37437424 0.72398037 0.13121508 0.0141641125 -1.2802734 0.6459726 1.4526128 0.831484 -0.71558636 -0.60406524 -0.80574656 0.65246695 1.4107957 -2.4735096 2.0245798 -2.110038 -3.1010654 0.70177335 1.0152777 3.8224385 0.71355975 1.2957375 -0.3580414 0.4853585 -0.094571 1.6696608 1.1321952 2.4306338 0.8979595 -0.704027 1.6126816 -0.00968409 0.034116708 0.23682046 -0.8898077 -0.25765216 -0.7778823 1.3606584 -1.0837171 4.654045 0.7019486 1.1916993 -0.8396673 -0.9476179 0.03233884 -0.01846845 0.67835367 -1.3357422 0.5420602 1.2059674 -0.59684765 -1.1358198 1.6985989 1.8019886 1.0528063 -0.22791743 1.6836157 -0.27450255 0.15754893 0.24098563 0.017836493 -0.9258497 0.2137388 -0.13711874 0.7893733 0.6983027 1.0878773 1.5600302 1.1999156 0.356108 -0.3369095 0.64987904 0.73205453 0.05386495 -0.9188909 -0.6886596 -0.67852163 -1.8851897 -1.5827278 1.6103964 -0.4665344 -1.7743506 0.95069283 -1.1409523 2.0397038 -1.3190513 -0.08657772 -0.9618364 0.5601971 1.0737208 1.7804316 0.5120424 2.66438 0.48118198 -0.7078385 -0.17012975 -0.16412008 1.5928576 0.46599674 -0.8582259 0.8638507 0.010898431 -0.34218043 -0.64372903 -0.4535642 1.1506655 -0.4408912 -2.0301294 -1.025171 2.4328036 -0.5354731 0.9646866 -0.97420114 -0.9845616 2.2696896 0.79874706 1.1723377 0.41150263 0.476518 2.7909017 -1.2994208 0.48247984 -0.82226694 1.9812262 -1.5362388 0.1929916 -1.4659985 -0.8220665 -0.18886152 1.3613098 1.6724102 -2.095586 -0.60716444 2.9235134 -1.6265738 -1.6648302 0.7224961 0.65406203 1.1263385 -0.9885553 0.58451736 -0.47543266 1.0605338 -1.3903224 1.3780974 0.7701668 0.266314 -4.4033546 0.3922905 0.43660814 0.050342225 0.26172596 -2.1624577 0.37965563 -0.2980157 -0.297156 0.8479599 -0.68325055 -2.193172 1.3343251 -1.9198936 1.9939437 1.094723 0.13666415 -0.3435913 2.9085364 0.74445885 -0.3212803 -0.5316756 0.037905052 0.69477135 1.7178361 -2.6866438 1.2637514 -0.5766072 -1.1947713 0.31865913 -2.3193173 0.4231821 -0.45067325 -0.725448 -0.8152643 -1.7293036 0.8411243 -0.9009578 -0.9993196 0.90140426 0.12893015 -0.096124254 -1.1267809 -0.3740809 -0.42382157 -1.3625101 -0.33352658 -0.73605365 -1.1951848 0.20714663 -1.1607295 -1.0844399 0.6099424 2.245538 0.54240257 0.12506717 0.3548038 -1.3977209 0.9164647 2.257687 1.4474993 0.62099123 0.615554 -2.0265055 0.69177675 -0.7296144 -0.80442685 -0.4038423 -1.2024614 -0.2107703 -0.98269695 -1.7114872 -0.3348378 -1.9813402 1.5746205 -2.3308406 -1.8698472 -0.6228843 0.44744188 -4.1353683 1.0414624 1.1320325 1.4750062 -0.45729813 0.5226606 -0.5253566 0.5699069 -0.3026624 -0.918615 0.33982968 -0.0870184 1.1106032 0.28505856 1.4521304 -1.0845221 -1.1229404 -0.18774825 1.2312866 -0.77848154 0.30859157 -0.14715172 1.053251 -0.9567914 1.0711702 2.027861 0.96985155 0.19983877 0.8834388 0.24894194 0.83192635 1.3920258 0.55315566 -0.6796231 0.3191146 -1.3531959 2.3563833 -0.56021106 0.77066517 -1.2425362 -1.9992872 -1.1883005 -2.69427 1.1049496 0.028405266 0.2846562 1.0446621 -0.07974663 -0.76838976 -2.4285834 1.3734763 -2.1222756 0.39377552 -0.5739721 2.233147 -1.5147513 -0.4557511 0.7470508 0.64821374 0.3375063 -0.761139 -1.2452154 0.14654912 -0.92171437 1.8003879 -1.7504066 -1.5359834 -0.10136659 -0.6867403 1.4099357 -1.0463952 -1.5783166 0.44904983 0.32140982 0.9838313 0.993078 0.35551527 2.1014805 -0.3199428 -0.70009154 1.047947 -0.36688286 0.7566527 -1.5153913 0.6664105 -0.4376875 0.46255565 0.75019944 -1.7736427 1.2448105 1.9562995 0.559968 -0.7267064 -0.5224306 -0.8876822 -1.59925 -0.20527118 0.3595327 0.035303697 -0.5579328 -0.3164971 -1.9950483 1.0895774 -0.9831195 -1.4504516 2.1549037 -1.0734749 -0.32881585 0.9582783 1.2719389 -1.5759461 -0.18212657 -0.8163974 2.2914193 -0.1639229 0.74868846 0.8877279 0.5130212 -2.801433 0.62602925 -3.4946942 1.1411822 0.877944 -0.60392284 -0.66322476 0.9492592 0.6171332 -0.0539312 1.2593678 -0.27669993 -2.3585808 1.7889534 -1.3907056 1.0695577 1.2724738 0.7107691 -1.1369667 -0.8210876 -0.5371411 0.011153913 -0.4337738 0.47574463 0.69702756 2.2367208 -0.36490542 0.65056735 0.7420439 -1.1500463 -0.2508346 0.05083648 0.24253282 -1.0444427 -1.263217 -2.070461 0.74456006 1.9675951 0.35876203 1.6925043 -0.68449396 -2.0905812 1.0048285 1.5319703 -1.7921718 -0.9648169 -0.34546137 0.9820686 -0.31213126 0.05500541 0.93776155 -1.145067 0.7467677 -0.09615862 -0.4944029 1.8958942 -1.6343741 2.0564811 0.19696851 -1.4134372 0.838644 2.3183012 -1.5890787 0.12581614 2.6481855 1.2471107 -1.5500218 -1.9940447 -0.28644988 -0.24755421 1.014781 -2.966448 4.4977183 -1.9279038 0.39263862 0.84955496 -0.515121 -0.77546465 0.25818408 -2.067112 -1.2864463 -1.5726626 1.9426111 0.9243827 -1.1353594 -0.37444556 0.9800908 1.3844314 -1.5618616 0.9255476 0.36857772 -1.1531594 1.9557278 0.2868476 0.090046704 2.5128117 0.18749258 1.021703 0.44522354 -0.2130746 1.9308511 0.8798713 2.8534794 0.39622194 -2.6521184 -0.6894002 1.1571392 -0.5185671 0.97805005 -0.27002636 1.2912713 -3.1057115 0.6396666 0.2862155 -0.7029944 -5.490761 0.6918351 -0.2741171 -0.044960275 0.5188296 -0.7304767 1.8942056 -1.0573069 0.57829916 1.3600199 -0.99057835 0.62544465 0.0056662094 -1.1740322 -1.6980132 2.877496 0.031492807 0.6684415 5.316687 -1.4050895 -0.4706016 0.72745854 -1.001621 -0.46797293 1.5802515 -2.1869721 -1.256415 1.0671226 0.8047048 -1.1534307 1.1725403 1.5489236 -1.0995946 1.3810922 -1.4631258 -0.8039476 0.6898699 -1.2675511 -0.31243888 -1.4005941 0.78291744 1.8183514 -0.1729595 0.6492414 -0.9303873 0.6672424 -1.4130292 1.4068971 -0.009294555 0.64098525 0.55218226 -1.4604219 1.0914145 0.9735309 1.1979227 1.7538393 1.671613 -1.7748393 -0.948479 -1.1277896 0.9926379 0.8150061 1.3605429 -0.11843758 -1.1167846 0.815322 -0.8878229 -0.9601418 1.2747164 0.5756642 1.3521578 0.07882097 -0.64167184 0.85683256 -0.23373976 0.29461807 1.8975989 0.47003302 -0.673778 0.1683364
𐀇 0.3997451 -0.4734995 1.3638984 -1.7580724 1.2000558 -1.1036084 0.45049378 -0.2597192 -0.7223872 -0.1839879 0.21528123 -0.23224533 0.49877608 -2.0474894 1.5823449 0.15032828 0.34975526 -1.4961597 0.66944176 1.3185672 -0.45090026 -0.5668294 -1.0956054 -0.5853031 0.54533213 -0.7308072 1.4520445 -0.48487124 -2.9149723 -0.035050467 -0.46515268 0.3016076 -1.2144809 -0.30100575 -0.68750393 -2.651467 -1.2824237 -1.1896621 -0.006261342 0.37188077 -1.5537646 -1.7311409 -0.6038686 -0.7598343 0.17547652 0.47136068 0.7799013 0.09611876 -0.76303947 -0.4987863 -0.7831184 0.9703237 0.14007737 1.7041907 -0.05288542 1.3080864 -0.33002147 0.08493104 -1.2224934 0.8558795 0.22794697 -0.7805958 0.23426755 -0.38570747 -0.8556672 -0.3942849 2.3948438 -0.5176608 -0.015900448 -0.122524224 -0.86211884 -0.24180181 -1.6043075 1.004343 0.13418448 -0.054179605 1.1070707 -1.1835437 -1.0270783 0.16580543 -0.74702775 -2.4506168 -1.2308856 0.2948392 -1.670263 0.3129534 0.03584024 -0.5566093 1.1386673 1.5877671 -1.9011203 -1.0029712 0.3511814 -0.64473003 0.7540702 -1.1695696 1.1886805 2.241335 0.0044334386 0.5458083 -1.1906981 0.7586617 -1.1919789 -0.30055428 -0.400424 -0.5099049 -0.3659046 1.2206051 -0.5521023 -1.8821285 0.8043897 0.1595439 -0.090491526 -0.16351844 -1.0468082 1.2256969 0.18113619 2.854719 1.3158318 -0.3247955 -0.049154185 -0.45136026 -2.9165282 0.37818694 0.08308775 0.36459225 3.163242 -0.3119917 -0.41742304 -1.862814 -1.9016709 0.14111985 -0.7548191 -1.4172946 -2.0459077 -0.45057544 -1.6210117 0.30497512 -1.6446972 0.62396806 -0.5974512 -0.74152195 2.0454497 -1.9940288 -0.067679055 -1.3556348 0.6900122 0.097877346 -0.5179991 -1.0641011 0.45541388 -0.15406501 1.1931984 -0.7868124 -0.39802605 -0.032663457 1.4200091 -0.7891072 -0.7060799 -1.0055721 -0.041598585 -0.81138945 1.631166 -0.47378105 0.63542217 0.50173706 -1.0637476 -0.6672603 -1.2786211 1.1958481 -0.058673862 -2.0613556 -0.16197996 1.7006838 -2.8588204 0.52341604 1.2167357 1.2039164 -0.4531608 1.4626098 1.2950369 0.19621259 -1.3135992 -0.6728005 -0.98998505 -0.008596619 -1.2246842 0.6930389 1.6572092 -0.39148784 0.3742349 -1.4217713 1.0398101 0.13299048 -0.33056036 -1.2336947 -0.56104696 -2.9772956 0.34440196 -1.7765437 0.61351824 0.6271485 1.2781757 -1.9649038 -0.048747476 0.135055 -1.5325402 -1.0193001 0.3560259 -1.9265778 -0.09693068 -0.59626573 1.7301375 -0.16448076 1.2378051 1.5598872 -2.8056066 -1.2287642 -0.5957944 -1.0709167 0.18499821 -0.5182773 -0.24364574 1.3572737 4.6451416 -0.6780843 0.7013055 0.45602968 1.1297822 -1.7372752 0.9655743 -1.5020791 -0.19988239 -0.008012037 1.7148285 1.3674684 0.5960075 0.8924651 -0.48346478 -0.20842952 0.069813564 1.1050671 -0.90209776 1.7775978 -0.26531044 -2.039462 -0.22718807 1.1053925 3.753616 0.22652398 -0.20434812 1.5043074 -0.013596969 -0.25988248 1.9079581 1.5184759 1.7110661 0.770457 -1.6672038 1.3035694 0.25196883 -0.53794 -1.1019049 -2.575505 1.2022252 -0.10016295 0.21818858 -0.7036498 4.6484237 -0.44014654 0.034799796 -1.3769757 0.2068393 0.8640594 0.8794903 -0.22862475 -1.6589015 0.30337417 1.7417165 -0.31618643 -0.66479206 0.25444886 1.0544254 1.657149 -0.79660076 1.4021729 -0.43806773 0.5501534 0.78492475 0.09880131 0.07870364 0.8960289 -0.8877394 0.9160255 1.7937218 1.5647498 1.6433126 1.2677776 0.68358874 -1.233003 0.9040766 0.14031066 -0.65546286 -0.9856876 1.0605907 0.22847143 -1.4332935 -1.110424 1.2979436 -0.8477731 -1.6303455 0.50670224 0.5091959 1.1250648 -1.3269012 -0.1439378 -0.64032334 0.32881427 2.153878 1.6974453 -0.027927483 3.5425549 -0.16838449 -0.4168924 0.19269547 0.81973946 0.37494403 0.988598 0.44660166 0.580047 0.76179713 0.5737736 0.82338345 -0.8302705 1.1270185 -0.18265273 -2.0919042 -1.523866 1.3933059 -1.2147862 1.14374 -0.6602496 -0.6296003 1.2887213 0.20884314 0.69241095 -0.63748574 0.44668448 0.9788623 -1.6025383 -0.691303 -0.8664862 0.79411185 -2.5463243 0.08576164 -0.68364275 1.7545558 0.23682733 0.87086535 1.6440748 -2.90014 -1.0553362 2.189835 -0.8401351 -0.42093226 -0.8634288 0.7354677 1.1607313 -0.18629968 -0.50757325 -1.4316251 0.103549734 -1.5234267 0.85843045 -0.61610305 -0.31250042 -7.354152 1.3744206 0.6471947 -0.23853621 1.1788388 -0.32176757 0.76142484 -0.54925424 -0.23294291 -0.31848183 0.36434668 -2.5447679 1.4304191 -1.5144408 0.6512191 0.5575488 0.10553476 0.40808475 1.1467029 1.0404955 -1.1725152 0.06266938 -0.18421835 0.79098475 0.10088804 -2.5091329 0.17224316 -1.4997438 -0.3885923 0.27922732 -1.5594249 -0.94996774 -0.9434533 -0.20637865 -0.8671567 0.14929578 0.41654977 0.09246671 0.27856815 2.320274 0.21586333 -0.3327644 0.22018638 0.2842428 -0.101982445 -0.39993885 -0.986818 -0.24287428 -1.1464202 1.0353409 -2.0005646 0.5731468 0.120143875 1.4073296 1.253764 0.90320104 0.1526468 -1.370042 0.47659826 -0.40004942 0.5200393 0.41628107 -0.29122686 -1.5262722 0.56231666 0.5376146 -0.6648498 -0.48321864 -0.91092956 -0.5518812 -1.7477778 -0.7228921 -0.83257884 -0.64605325 0.95561665 -2.2657907 -1.1452217 -0.19642256 -0.6965196 -3.3729103 2.0704455 -0.3640271 1.1403934 -0.88246924 -0.18283138 0.8698952 0.4536118 -0.80181974 -0.6224915 1.1092937 0.23631407 0.8608679 0.6109132 1.1393042 -0.4003794 -1.0239408 -0.30789784 0.37934747 -0.43935692 0.93093383 1.5456884 0.22393167 -0.5130591 0.36534208 0.79128236 -0.022295635 0.40760943 0.10320751 1.0003204 0.3078027 0.35908857 -0.40078324 -0.26231983 0.6250544 -0.4258907 0.73848695 -1.4310433 1.3088484 -1.5758853 -0.3471963 0.6068016 -1.3948709 0.21304792 -0.85379004 0.57598495 0.20484318 -0.21839316 0.46343005 -1.4040273 1.5641854 -2.434077 -0.22840093 0.5910525 0.16216266 0.22725694 -0.921522 -0.41588137 0.56782424 0.6278565 1.0271286 -1.2911773 0.10650615 -0.89380693 0.84633994 -1.8304149 -0.48883355 0.3801618 -0.49045232 0.5478757 -0.9327074 -1.8007802 0.2349541 -0.35470194 -0.072281875 -0.9825098 -0.24750736 2.4251456 0.25117296 0.19313446 0.6393222 0.44855672 0.099921405 -1.9709114 0.49460128 0.58699924 0.80277765 1.2792872 -0.75586236 0.77816033 0.79016626 -0.7619206 -0.4988815 0.17577529 -0.81847256 -0.77467716 0.28197977 0.3109026 0.4143648 -0.050264545 0.27426952 -1.1019467 0.42472214 0.6858977 -0.45373535 0.7489598 -1.1610435 0.01704416 1.2188122 0.07727236 -1.1299942 -0.99503994 1.046427 0.4337147 0.4519197 0.7160283 1.7961826 0.13946345 -1.5549142 1.6454774 -2.078326 1.075957 0.25751027 -1.9102414 0.6389613 -0.23303007 0.87358826 1.5858406 -0.72918254 -0.2460594 -0.70916456 0.53904825 -1.5950063 0.9756597 -0.07908674 0.65784705 -1.44826 1.2990644 0.6020647 0.42948323 0.6177636 -0.91580236 1.0970359 0.18245113 -0.26534393 0.1934113 0.4483796 0.20931688 -0.66846 1.1699333 0.80396175 -0.61382306 -2.4446447 -0.9422329 0.6635643 -0.4526046 0.123136915 0.9542186 -1.4512922 -1.5639952 -0.2725675 0.98592186 -1.5528204 -1.224039 -0.9509584 -0.3098496 1.0783191 -0.45657334 0.87960464 -0.53895956 0.86158836 0.9714682 -0.8402289 2.602648 -0.68885493 1.5267518 0.13266748 -1.9291761 -0.9632738 1.4835465 -0.08052082 0.019660337 1.2729524 0.9480877 -1.1763088 -2.0304027 0.68420136 -0.0016568765 0.47172725 -1.6603804 3.3857422 -1.5595477 0.42610857 0.44297922 -0.2325499 -0.790913 -0.58176285 -1.2066543 -1.726063 -1.6251111 1.1560125 -0.4732789 -2.7809317 -0.19879445 -0.35145238 -0.39143568 -1.5645865 1.34988 1.5314445 -1.6035439 0.36852345 0.46301958 -1.1819519 2.3403742 0.49697495 0.20978758 -0.27485275 -1.0891099 2.0856612 0.31108284 2.0676854 -0.28861973 -2.5850282 -0.11401331 -0.0849903 0.03752682 0.083701454 0.13615583 1.23181 -2.9016232 1.8427625 0.42369723 -0.58033884 -6.747202 0.67404884 2.476 1.0825787 1.1811534 0.012598656 0.69367075 -0.7252347 -0.7459518 1.2408879 0.59207773 1.490799 -1.0346409 -2.2798028 -2.7722795 1.8520054 -1.1137981 1.2940367 7.815008 -0.31189665 -1.1659561 -0.13363579 -0.15144114 -0.7149362 0.73836476 -1.6747943 -1.8775425 3.3275802 0.87862563 -1.9204481 0.19374536 -0.11419766 0.16105469 1.4286511 -0.33469665 0.46170872 0.4829301 -1.9659555 1.1509997 -0.9823525 -0.22571757 1.0955895 0.47441092 -0.32381412 -0.2792533 1.6869941 -0.77661544 2.3102257 -0.45211315 0.19312133 0.44173554 -0.118673116 0.09468668 0.433134 0.63575464 1.2665797 -0.37080687 -1.8206196 0.9195521 -1.6576741 -0.20253648 0.5864517 0.5282953 -0.107913226 0.39803928 1.3278276 -0.77117735 -1.2997707 1.4176099 0.34309745 0.69812936 0.32268184 -0.32179394 1.4742367 -0.5137741 -0.35208148 0.96651983 -0.37316823 -1.1076577 0.98476094
𐀈 -0.92584443 -0.415399 1.3191917 -1.1111662 -0.14975873 -1.4378251 1.6739432 0.11917839 -0.71667796 -0.39393964 1.1492075 0.23623233 -0.8910635 -1.685072 2.7034826 -0.17247933 0.84987944 -1.378205 1.2907237 0.8752145 0.1499051 -1.1484334 0.07747617 -1.0996612 -0.09710035 -0.45964965 0.6972645 -0.6948774 -2.1373026 0.62636095 -0.47625053 0.2839753 -0.23166382 -0.6678119 -0.6943608 -1.9439006 -0.8619861 -1.278899 0.04214573 -0.49102464 -2.1926937 -1.5044614 0.16631566 0.120692745 -0.32506627 1.4831271 1.1939125 1.069132 -1.0711508 -0.83597136 0.28330922 1.6927032 0.2888738 1.6118147 0.7135338 -0.23511656 1.1379969 -0.1753353 -2.3370945 0.14608428 0.12527935 -0.41106024 1.0465207 0.21047918 -1.2081428 -0.8068493 0.51817125 -0.3324784 -0.04244057 -0.09292475 -1.8183825 -0.33985105 -1.8002975 -0.12997214 0.14780995 -0.021765403 0.8076157 -1.2501655 0.19466078 -0.20778799 -0.75802207 -2.0151536 -0.52602756 0.81629914 -1.3663461 -0.10480869 -0.119860046 0.8916667 0.27503094 2.3958645 -2.1654978 -1.2770426 0.5413445 -0.76242906 -0.7515478 -1.7444897 0.6150873 0.82705903 1.2404047 2.031928 -1.1273049 0.83969074 -0.99656206 0.25354442 -1.7332276 -0.3874479 -0.41180214 1.4252154 -1.2577773 -1.1497487 0.2623293 0.2994388 0.30724075 -0.16391245 -0.77487105 1.972228 0.15500101 2.7799911 0.75999975 -0.29412088 -0.09581197 -0.4070464 -2.8458633 1.0399405 -0.3771572 0.61319053 2.6820767 -1.1706642 0.98940057 -1.3507673 -2.276859 1.3714653 -0.5553774 -0.94080955 -2.2975826 0.11563904 -1.9375081 1.564884 -2.5741615 0.69645506 -0.8234949 -0.17346035 1.6328217 -1.7423484 -1.4070219 -1.236154 -0.041600004 -0.5217014 -0.7961298 -0.91446155 -0.52336025 -1.6774209 -0.44008887 -0.40286985 0.42855603 0.164909 1.8690118 0.7268576 -1.0305781 -0.6183873 -0.77525944 -1.1625655 3.5461686 0.5177341 0.35483524 2.1643114 -1.8061888 0.24178429 -0.42023677 1.0192367 -0.04999768 -2.7702138 0.47252235 1.0803349 -3.035636 0.607894 1.2867858 1.2298958 0.46225473 0.8653855 1.0629201 1.2041825 -1.6123333 0.347622 -0.021458834 -1.6604342 -0.7813633 1.28002 3.0312924 -0.2756723 0.041973375 -1.9298927 0.6313068 0.1760345 -0.5506846 -1.7042295 -1.8256058 -2.3602405 0.6026464 -1.684884 -0.26870826 0.47280836 0.82479435 -3.255132 -0.53550774 0.008409855 -1.3314265 -1.0475036 0.6287273 -0.71415174 -1.0265384 -1.0090417 1.40338 0.3951313 1.1013805 0.92852646 -4.6255674 0.53985196 -0.5909362 0.14867687 -0.41121912 -0.52868134 -0.84493935 1.1621326 4.9930005 -0.65247595 -0.26735935 0.20233764 1.5926913 -1.6501927 1.7639759 -0.1574779 -0.36812 -1.0805293 1.7824073 1.6566 0.8285434 -1.5314205 -1.6330706 -0.80671257 0.2968817 2.389431 -1.4920396 2.3621786 -1.8085304 -2.4033725 -0.28496045 1.0897825 3.643813 0.93521833 0.59382313 0.3795655 -1.7392496 -0.45253593 1.5908439 1.2130716 2.5754898 0.08465536 -1.1530288 2.0416458 -0.9374936 -0.9350003 -0.40463358 -1.5451021 0.5122031 -0.92253286 0.26249707 -0.4467845 3.8322053 0.22655745 1.5959524 -2.145049 -0.6644291 0.047057535 0.6912421 0.40777564 -1.7843424 0.35864478 1.5843655 0.13302347 0.40102613 0.7831603 1.241181 0.115760215 -0.9929793 1.0892667 0.4762294 0.8838286 1.824863 0.20876253 0.31878048 1.0776241 0.0742196 1.726009 1.0058328 2.204229 2.4137082 1.5901012 0.651618 -0.6669581 0.033630945 0.68401164 -0.34072378 -1.4404848 0.59590966 -0.39257577 -1.1396474 -1.3311416 1.5096725 -0.27936375 -1.7514331 0.81881976 0.14709553 0.21483316 -1.5272386 -0.33546627 -0.27713984 0.15568425 0.9824817 1.0710274 0.12572081 3.7879322 -1.1304939 -1.2954535 -0.19614047 0.75133246 1.0748464 1.4819709 0.672165 1.4684378 -0.13652852 0.06397323 -0.838965 -0.15535018 1.443438 -0.1866185 -1.5007889 -1.7692255 1.126741 -1.1761351 0.43354958 -0.90133864 -0.9258639 0.7764166 -0.55551195 0.05112768 -0.97650504 0.3435759 2.3509932 -2.1034923 0.35861066 -0.55157983 1.1013389 -1.5728422 0.6267962 -0.5494808 1.4512379 0.6711522 2.630591 2.2718468 -2.3159847 -0.5092732 2.1081455 -0.88381165 -1.5063782 0.32791358 1.0549117 0.8084713 -0.44309923 -0.861121 -0.54192054 0.07166354 -1.1357801 -0.4477216 -0.19909179 0.26576155 -5.4734154 0.964727 -0.3367709 0.3061474 0.5294013 -0.6435456 0.1711074 -0.36883292 -0.73304516 0.35460135 0.34281233 -2.1679037 1.8559076 -1.3392799 0.77121544 1.129091 1.5039996 -1.0449296 1.4080924 0.5312874 -1.13798 -0.3014582 -0.11690521 -0.6054733 0.6006476 -1.2412968 0.22989346 -0.6042892 -0.9289717 -0.409324 -0.773973 -0.5553829 -1.1077648 -1.1729833 -1.3969465 -0.8107047 -0.104822956 0.20148277 0.72864777 1.5322396 -1.3981324 -0.13773437 -0.29588583 -0.2847877 -0.12198702 -0.042691346 -0.050538797 -0.38381281 -0.81738526 1.2637241 -0.44043648 -0.586146 0.45119894 1.4041907 1.6050858 -0.09918629 0.53848195 -1.0284168 0.95721614 0.23678221 0.86646533 0.31174833 -0.24960512 -2.0303533 -0.28096095 0.18306454 -1.177566 -0.6263137 0.22013517 -0.44989195 -0.9648489 -0.4548413 -0.21824652 -0.5113092 0.17303212 -1.7274057 -1.0774862 -0.4438497 -0.96558446 -2.83337 1.6413802 0.013730133 1.9485327 -0.6119491 0.34192255 0.36876568 0.5305771 -0.70675445 0.9511562 1.3380585 0.59609634 2.0088441 -0.73796666 0.090902105 -0.63464093 -1.5638231 -0.4574461 1.3875074 -0.5390558 1.2017598 0.07567775 1.20173 -0.8070895 1.4514557 1.5562546 0.84000087 -0.29124004 0.8370526 0.34818572 0.2083176 1.6379662 -0.24660578 0.17625725 0.37339625 -0.420632 0.8380005 -2.4615393 0.176191 -0.477627 0.23124965 -0.15407254 -1.5235957 0.41130507 -1.6234473 0.52350676 0.99779713 -0.6503494 -0.29812 -1.6730093 2.50158 -1.7427473 -0.3683388 -0.29822096 1.3045747 -0.279777 -0.50472885 1.378094 0.21626537 0.7284688 -0.28528833 -1.1685725 1.5557581 -0.034193397 2.237451 -2.2375898 -0.5152383 0.07840143 -1.1866108 1.2230402 -0.81834865 -1.3542774 -0.96177405 -0.26533625 -0.53409743 -0.9196444 0.27474418 3.2162356 -0.19772495 -1.2973359 0.65037143 -1.5197747 0.24781075 -1.5307711 0.039326202 -0.14142928 1.1947004 1.3120035 -1.4125576 0.8365673 0.27989367 -0.24164477 -1.3440572 -0.4318605 -0.39880347 -1.2078164 1.4733577 -0.014983314 -0.26270002 -1.2411536 -0.47863498 -1.4518123 0.40941346 0.066727184 -1.1334155 0.9348975 -0.981972 0.22585739 1.288616 1.2747316 -0.591943 -0.3406569 1.1281427 2.0585773 0.5524181 -0.0010684544 1.044818 0.7140915 -1.7952863 1.1718494 -2.2215648 1.4034383 1.0836278 -1.3125145 -0.042333983 0.39066947 1.0069472 0.7110229 -0.27187932 -0.16410774 -0.45185617 1.6774727 -2.1629033 0.6772219 1.2369523 0.6981752 -1.3490337 0.8182091 0.24271454 -0.017555675 0.016860921 0.49203965 0.9364598 0.11503202 -0.5322111 2.2345977 -1.4633753 -0.070774205 -2.078981 0.69762665 0.30732462 -1.7380788 -1.8459595 -0.6144431 0.85797197 1.5116605 0.21738625 0.05083711 -0.8007621 -0.4953826 -0.7394156 1.1722846 -1.6925801 -0.92266876 -0.6894373 -1.2443978 0.3810463 0.2579092 1.4117253 -1.1673481 1.3934425 0.09642831 0.019060839 2.163681 -0.9473724 1.782042 0.28311992 -1.8995332 -0.62962455 1.2063785 -0.83746684 0.7138136 0.8930089 1.752292 -1.0631841 -2.3654482 0.8776987 -0.71586823 0.98379767 -1.9439458 2.9752321 -1.1232204 0.9819047 0.93476665 -0.5296651 1.1408378 0.013655491 -0.743232 -1.0360762 -1.357773 1.1493145 -0.8523946 -1.641223 -0.49112794 0.15896133 1.4362681 -1.1218895 1.8121017 0.88986605 -2.1529202 1.5399933 -0.03069196 -0.45067278 2.9989612 0.36455888 0.26349625 -0.64743274 -1.1673433 1.1617036 -0.14474766 1.5510975 -0.05667999 -1.6189734 -1.011581 0.38140798 -0.5861857 0.430178 0.65570444 0.6278832 -2.4422755 1.4986866 -0.3154279 -2.1738315 -4.8539762 0.8518061 1.3956301 1.0936643 0.4767968 -0.5916018 1.4006706 -0.12742531 0.45850232 0.9659965 0.69284874 0.23595142 -1.4561666 -1.4689682 -2.2844977 2.0276055 -0.7111978 0.6419921 7.9514623 -0.42169514 -0.2920573 0.5737016 -0.6655561 -0.48111716 0.89042693 -1.9571631 -1.6366153 2.1639562 1.2235194 -0.92076856 0.42179164 -0.2563096 -0.11741414 1.3271812 -0.44946012 1.1365514 -0.91760486 -1.4061295 0.4304376 -0.9080229 0.7126868 0.5557149 0.12207871 -0.73066235 -0.6703079 0.54971015 0.48255923 1.5950879 0.004608927 0.19693911 -1.6694708 -1.2900031 1.1965015 0.6932577 0.17366931 1.0576476 -0.04901318 -1.1500981 0.44377592 -1.6424432 0.1529952 1.5888902 0.76853865 0.32849815 -0.29350594 1.185016 -0.7121649 -2.63717 -0.6012594 0.13319708 1.3927851 -0.74560505 -1.2395451 0.6701394 -0.6400994 0.1993739 1.2433705 -1.0186267 -1.4655849 -0.2883319
𐀉 0.35985273 -0.5979994 1.4381477 -0.9150533 0.92947143 -1.3322502 -0.6924779 -0.93342733 0.40380123 -0.31191668 1.2591636 -0.26834783 0.47891346 -1.8288709 1.2265155 -0.14619571 -0.2577562 -0.2170395 0.45366755 0.6869894 0.37719908 -0.7727321 -0.99003226 0.5905028 1.0242764 -0.119221725 1.060845 -1.9700395 -3.472575 0.5346184 -0.87714106 0.73120517 1.0430565 -0.09223907 -0.910244 -2.6629117 -1.4945526 -1.4410423 0.050838612 0.5198334 -3.2725737 -0.7483 -0.3087179 -0.09680081 -0.15106761 0.5519589 1.4906353 1.1393951 -0.31261182 -1.3737879 -1.5069231 -0.0388982 1.2210256 2.0668838 0.51159275 0.5542523 0.21435075 -0.2689947 -1.5741761 0.0071585258 0.9101339 -0.86459 0.12896796 -0.12590253 0.07311108 -0.14304999 1.943476 0.1523947 0.66380113 0.4191061 0.47533885 -0.060598254 -0.8292028 0.82433546 2.1601698 0.53488696 -0.36663094 1.1762726 0.057798434 -0.07579681 -1.2015427 -0.8601118 -1.4528154 1.1489954 -1.8112402 0.23521799 0.2850566 0.39866534 1.8137157 1.2367258 -1.2856873 -0.6697455 -0.08645738 0.18668745 1.3735414 -1.4526142 -0.007334819 1.052915 0.295771 0.11359128 0.86217475 1.5314587 -0.22677116 0.08903555 -0.31043255 -1.7153627 1.1750951 1.2124839 0.118635714 -1.085611 0.7209783 1.2911172 0.7505546 -0.35191512 -1.1417753 0.7703206 0.37682176 3.3243763 0.6977623 0.17926182 -0.057217583 -0.18042652 -2.8483782 0.5239237 0.7906115 0.5994204 2.4748473 0.6383166 -0.8634906 -1.6535739 -1.7108041 0.38891223 -0.17413884 -1.60663 -1.9546956 -0.53137285 -1.5610753 0.5611979 -1.1947739 0.3388973 -0.85428035 -1.8381186 2.3589501 -0.13358116 0.6644656 -1.1401304 0.17241943 0.5120268 -0.078781955 -0.006898834 -0.8388731 -1.4588656 0.29793176 -1.0899979 0.57787234 0.8930352 1.777077 -0.1399841 1.0633537 -1.3353919 -0.8372698 -0.2978711 0.83246535 0.12130513 1.383895 0.29342273 -1.2049277 -0.44951987 -0.07319539 0.26637405 -0.2341437 -1.6317871 0.094769455 0.7035614 -1.0227561 0.29980975 -0.11663034 0.9459774 0.3459821 0.7862715 -0.6417386 -0.29876703 -1.1997926 -0.73262894 0.025552958 -0.23822731 -0.77814335 0.67586195 2.8168309 -0.87610066 -0.7325336 -0.24121378 -0.056287173 0.3863119 -0.4067787 -0.93445677 -0.6644082 -1.9801754 0.62647027 -1.5793798 -0.5492506 0.50987566 1.4478503 -1.9533473 -0.50723577 -0.728679 -1.650665 -1.671329 2.8406 -0.8939129 -1.0717769 -0.8474615 1.0665137 -0.14559264 0.675839 2.0019572 -4.1653643 -0.48993114 0.20649312 -0.19613832 0.2836986 -0.61447006 -0.1454535 0.26582474 5.0012374 -0.42094362 -0.25230867 -0.5332355 1.0029783 -0.51347995 0.31322128 -0.61556065 0.7007569 -0.33811888 1.4131299 1.2061191 0.9315524 -0.27334034 -1.1580681 1.2367662 -0.34349865 0.86819637 -1.9347632 1.300932 -1.5210248 -2.072711 -0.3006085 0.8622883 2.306247 1.0336959 1.111855 0.3634238 -0.7559052 0.30016848 1.8525912 -0.32777697 1.279452 -0.15758811 0.29531348 1.8523173 -0.086975336 0.77173406 -1.1297867 -1.6715026 0.067217894 -1.934239 1.0777851 0.19216096 3.4290864 -0.7057757 1.5502851 -0.82117647 -0.5565285 0.5575584 0.9648718 0.13560548 -0.37683684 -0.0036808879 1.618579 0.6089561 -0.13232978 0.5146391 0.7565167 -0.09727714 -0.6380252 1.7580833 -0.013818049 0.65162516 0.42019418 -0.5233927 -0.9118247 0.21848644 -0.91368866 0.4459017 0.9616855 1.8596272 1.6782227 1.1514809 0.9884844 -1.0461205 0.63109237 1.0861189 -0.46757168 -1.4795269 0.23489192 0.7628467 -1.052607 -0.4104221 1.0991012 0.042363703 -0.8785506 -1.255462 -1.3332387 0.09034036 -1.5874323 0.36694714 -0.38294834 0.36816302 1.8136625 1.5201743 1.2911608 3.0381339 0.3231033 -1.1627828 -0.5077887 0.4609973 1.1038767 0.6679704 1.0568483 0.9642722 -0.030417051 1.1595266 0.11872533 -0.821336 1.0179119 -0.7717333 -2.1775813 -0.5483307 1.3717223 -0.6658324 1.4863261 -0.8082534 -0.5706315 1.4903855 0.66890824 0.62026143 0.101099 -0.1676263 1.7856425 -1.6402092 -0.6289735 -0.9133309 1.977689 -1.5275925 -0.2007118 -1.7422236 -0.47340727 0.28252497 0.68315756 1.0442185 -1.1970319 -0.8644278 0.3930264 -0.08545541 -1.5112119 -1.6590091 0.3105523 0.50071406 -0.5462824 -1.4944915 -0.44167435 0.8772538 -1.5661387 0.25684887 0.28588858 -0.05147206 -4.2866545 0.0611738 -1.081308 -0.3274189 0.2860885 -1.1060623 0.48017442 -1.2732657 0.15583254 -0.5447138 -0.89868104 -2.3447585 0.3315616 -2.3204076 0.9442927 1.73302 -1.6106086 0.028520778 0.9370954 0.042620182 -0.6556285 -1.0345867 0.048051123 1.1982778 1.7231646 -2.6683729 1.0177605 -1.2573081 0.059447892 1.3866187 -1.0474644 -0.9325684 -0.57445365 -1.043336 -0.63475883 -0.9905882 -1.0665702 -0.51143986 0.61365926 1.6075859 0.35820645 -0.07735602 0.1824138 0.55442864 -1.3811389 0.29499027 -1.1551796 -0.9321773 -0.9912366 0.87348604 -1.2902656 -0.6963316 -0.86172986 0.16107598 0.223666 0.9558356 0.23665474 -0.8601351 0.31276825 1.0913628 0.6854936 1.2362769 0.6805025 -1.5470532 0.60144985 -0.48437592 -1.0180752 -0.57617176 -1.5681648 -1.1935326 -1.1822349 -1.0693206 -1.1192555 -1.1695619 0.023282254 -2.8563251 -0.5989916 -0.53892493 0.10355113 -3.8433552 1.1820602 0.5494976 2.0367215 -0.03665827 -0.39295524 0.0540699 -0.17406431 -0.34528458 -0.2633608 0.64981765 -0.17676619 1.0627674 0.08783432 0.016433842 -1.2228419 -0.6656639 -0.7079599 -0.37776476 -1.5702393 -0.00732486 0.5990029 1.2934064 -1.2180711 0.11612725 0.9440216 0.055248983 -0.2743049 0.17191239 0.7566406 0.5549701 1.2513249 -0.27234125 -1.042639 0.6675289 -0.36421442 1.5156745 -2.0991473 0.21965319 -1.5696275 -0.3923204 -0.44977286 -2.13984 1.2249757 -0.4394867 0.21477428 0.06360999 0.13575247 -0.41038138 -1.7886766 1.6085569 -3.1269598 0.25162473 0.47207162 1.8026035 -0.4582551 -0.6157351 -0.52993876 -0.5668416 -0.04919872 -0.8725865 -2.545372 -0.56315655 0.4833272 0.6172908 -1.3410873 -0.16483968 -0.7100658 0.46251836 0.87188923 -0.732589 -2.6087322 -1.252674 1.4117144 0.84693426 -0.70862705 0.1457119 1.2496239 -0.61226046 -0.07985746 0.45248258 0.06532596 -0.077731736 -1.5972475 0.54574376 -0.98823595 1.0354091 0.7245219 -1.3577521 0.456402 0.93621224 0.32006773 -0.8851387 -0.84879243 -0.35250136 -2.7384682e-05 0.29173785 -0.4580271 0.25657842 0.060732994 0.3303515 -1.8011701 0.69178444 -0.41702157 -0.62090623 1.498312 -0.5823978 -0.12181532 0.9852755 0.9865131 -1.1789304 -0.029445205 1.2894208 1.772886 0.2846684 0.78824145 -0.3466136 0.44282284 -1.3261508 0.7037891 -1.6026744 0.66913235 0.45099974 -1.7684497 -0.9100913 0.9657685 0.88849074 0.95559126 0.1523659 -0.63212645 -0.99679637 0.4833336 -1.6767687 0.65265495 0.42155176 0.5107384 -1.0035522 0.27885586 0.10247849 -0.79576176 0.40859342 -0.22679503 0.89961404 1.7783122 0.20110652 1.8122115 -1.1168981 0.20785332 0.101105966 -0.15407264 0.5207455 -1.9201875 -2.0282612 -0.7492021 -0.947912 0.8515566 -0.27442142 1.0862788 0.60431457 -0.2877351 0.39213914 1.0498571 -1.5753013 -1.0923742 0.08412366 -1.0964155 0.6636799 0.076887816 0.2717701 -0.13744813 -0.8545522 -0.8440803 1.0959107 1.8833195 -2.707744 1.7697508 0.71688217 -0.92705494 0.27910647 1.5500016 -0.7417975 0.39635926 2.5406575 0.97053015 -1.2140085 -0.54458845 0.74864495 -0.76065326 0.8570493 -1.8043439 4.0786366 -2.3502505 0.7883684 1.475698 -1.083968 0.09223539 1.0829164 -0.99628365 -1.0620569 -0.626402 0.5509195 -0.7580627 -1.7893841 0.040982164 0.39286235 1.029772 -0.97036266 1.429407 1.3583802 -1.4448799 1.6303146 -0.32248318 0.17416815 1.3533527 0.2901334 -0.74082613 0.49102053 -0.0043825815 2.32185 0.21282946 1.4312413 0.17937489 -2.139755 -1.8610091 -0.5002572 0.16776684 0.58372885 -0.40054736 2.1470177 -2.6332185 2.1837304 0.54723006 -1.262775 -5.614614 1.3179839 0.17891516 1.2526858 -0.32961032 1.0355147 1.51235 -0.6219593 0.21488196 0.8587065 -0.5546878 1.7023821 -0.2405271 -0.5071793 -1.7009947 1.8736196 -0.3581536 1.1423442 4.779186 0.72202384 0.26653543 0.62902063 -0.6701037 -0.5075315 0.16942921 -2.4369147 -1.1071217 0.7350202 0.36452305 -1.0426438 0.73198575 1.112183 0.94363713 1.5012554 0.7656547 0.6894677 -0.4836454 -2.0057156 -0.64568335 -0.59199345 1.8775995 0.612043 1.0063953 -0.23177755 -1.8939173 -0.2970192 -0.3001308 2.1455164 -0.51718396 -0.15409194 0.9908163 0.871956 1.2076174 0.058551516 0.94088423 1.4799078 -0.48954412 -2.1185482 1.9079818 -0.62088406 0.76067096 0.8102625 -0.4727051 0.48497364 -0.9024305 0.29907283 -1.414331 -0.6544472 0.78384304 -0.35989434 1.785916 0.5164681 -1.3358792 0.7009422 -0.32480317 0.50019616 2.0877872 -0.6728195 -1.8674108 -0.36728287
